{"gradients/classifier.weight": {"_type": "histogram", "values": [1.0, 0.0, 1.0, 0.0, 0.0, 1.0, 0.0, 1.0, 0.0, 6.0, 3.0, 1.0, 4.0, 4.0, 10.0, 10.0, 10.0, 11.0, 10.0, 10.0, 25.0, 21.0, 26.0, 24.0, 27.0, 38.0, 55.0, 65.0, 61.0, 91.0, 90.0, 156.0, 168.0, 90.0, 91.0, 60.0, 66.0, 55.0, 38.0, 27.0, 24.0, 26.0, 21.0, 25.0, 9.0, 11.0, 11.0, 10.0, 10.0, 10.0, 4.0, 4.0, 1.0, 3.0, 6.0, 0.0, 1.0, 0.0, 1.0, 0.0, 0.0, 1.0, 0.0, 1.0], "bins": [-540.0, -523.125, -506.25, -489.375, -472.5, -455.625, -438.75, -421.875, -405.0, -388.125, -371.25, -354.375, -337.5, -320.625, -303.75, -286.875, -270.0, -253.125, -236.25, -219.375, -202.5, -185.625, -168.75, -151.875, -135.0, -118.125, -101.25, -84.375, -67.5, -50.625, -33.75, -16.875, 0.0, 16.875, 33.75, 50.625, 67.5, 84.375, 101.25, 118.125, 135.0, 151.875, 168.75, 185.625, 202.5, 219.375, 236.25, 253.125, 270.0, 286.875, 303.75, 320.625, 337.5, 354.375, 371.25, 388.125, 405.0, 421.875, 438.75, 455.625, 472.5, 489.375, 506.25, 523.125, 540.0]}, "_timestamp": 1651981629, "_runtime": 320, "gradients/classifier.bias": {"_type": "histogram", "values": [1.0, 0.0, 0.0, 0.0, 0.0, 0.0, 0.0, 0.0, 0.0, 0.0, 0.0, 0.0, 0.0, 0.0, 0.0, 0.0, 0.0, 0.0, 0.0, 0.0, 0.0, 0.0, 0.0, 0.0, 0.0, 0.0, 0.0, 0.0, 0.0, 0.0, 0.0, 0.0, 0.0, 0.0, 0.0, 0.0, 0.0, 0.0, 0.0, 0.0, 0.0, 0.0, 0.0, 0.0, 0.0, 0.0, 0.0, 0.0, 0.0, 0.0, 0.0, 0.0, 0.0, 0.0, 0.0, 0.0, 0.0, 0.0, 0.0, 0.0, 0.0, 0.0, 0.0, 1.0], "bins": [-262.5, -254.296875, -246.09375, -237.890625, -229.6875, -221.484375, -213.28125, -205.078125, -196.875, -188.671875, -180.46875, -172.265625, -164.0625, -155.859375, -147.65625, -139.453125, -131.25, -123.046875, -114.84375, -106.640625, -98.4375, -90.234375, -82.03125, -73.828125, -65.625, -57.421875, -49.21875, -41.015625, -32.8125, -24.609375, -16.40625, -8.203125, 0.0, 8.203125, 16.40625, 24.609375, 32.8125, 41.015625, 49.21875, 57.421875, 65.625, 73.828125, 82.03125, 90.234375, 98.4375, 106.640625, 114.84375, 123.046875, 131.25, 139.453125, 147.65625, 155.859375, 164.0625, 172.265625, 180.46875, 188.671875, 196.875, 205.078125, 213.28125, 221.484375, 229.6875, 237.890625, 246.09375, 254.296875, 262.5]}, "gradients/pre_classifier.weight": {"_type": "histogram", "values": [2.0, 0.0, 0.0, 0.0, 0.0, 0.0, 0.0, 0.0, 0.0, 0.0, 0.0, 2.0, 1.0, 4.0, 2.0, 2.0, 4.0, 1.0, 1.0, 6.0, 5.0, 10.0, 8.0, 16.0, 17.0, 26.0, 28.0, 42.0, 103.0, 686.0, 18787.0, 531091.0, 37585.0, 1139.0, 128.0, 38.0, 30.0, 13.0, 14.0, 8.0, 4.0, 6.0, 3.0, 3.0, 3.0, 1.0, 1.0, 1.0, 1.0, 1.0, 0.0, 0.0, 0.0, 0.0, 0.0, 0.0, 0.0, 0.0, 0.0, 0.0, 0.0, 0.0, 0.0, 1.0], "bins": [-441.5, -427.5234375, -413.546875, -399.5703125, -385.59375, -371.6171875, -357.640625, -343.6640625, -329.6875, -315.7109375, -301.734375, -287.7578125, -273.78125, -259.8046875, -245.828125, -231.8515625, -217.875, -203.8984375, -189.921875, -175.9453125, -161.96875, -147.9921875, -134.015625, -120.0390625, -106.0625, -92.0859375, -78.109375, -64.1328125, -50.15625, -36.1796875, -22.203125, -8.2265625, 5.75, 19.7265625, 33.703125, 47.6796875, 61.65625, 75.6328125, 89.609375, 103.5859375, 117.5625, 131.5390625, 145.515625, 159.4921875, 173.46875, 187.4453125, 201.421875, 215.3984375, 229.375, 243.3515625, 257.328125, 271.3046875, 285.28125, 299.2578125, 313.234375, 327.2109375, 341.1875, 355.1640625, 369.140625, 383.1171875, 397.09375, 411.0703125, 425.046875, 439.0234375, 453.0]}, "gradients/pre_classifier.bias": {"_type": "histogram", "values": [1.0, 0.0, 0.0, 0.0, 0.0, 0.0, 0.0, 0.0, 0.0, 0.0, 0.0, 1.0, 1.0, 0.0, 3.0, 0.0, 0.0, 6.0, 7.0, 7.0, 6.0, 12.0, 14.0, 24.0, 33.0, 38.0, 58.0, 88.0, 146.0, 53.0, 58.0, 42.0, 33.0, 37.0, 19.0, 11.0, 18.0, 15.0, 9.0, 5.0, 3.0, 3.0, 4.0, 1.0, 3.0, 1.0, 2.0, 4.0, 0.0, 0.0, 0.0, 0.0, 0.0, 0.0, 0.0, 0.0, 0.0, 0.0, 0.0, 0.0, 0.0, 1.0, 0.0, 1.0], "bins": [-29.109375, -28.082275390625, -27.05517578125, -26.028076171875, -25.0009765625, -23.973876953125, -22.94677734375, -21.919677734375, -20.892578125, -19.865478515625, -18.83837890625, -17.811279296875, -16.7841796875, -15.757080078125, -14.72998046875, -13.702880859375, -12.67578125, -11.648681640625, -10.62158203125, -9.594482421875, -8.5673828125, -7.540283203125, -6.51318359375, -5.486083984375, -4.458984375, -3.431884765625, -2.40478515625, -1.377685546875, -0.3505859375, 0.676513671875, 1.70361328125, 2.730712890625, 3.7578125, 4.784912109375, 5.81201171875, 6.839111328125, 7.8662109375, 8.893310546875, 9.92041015625, 10.947509765625, 11.974609375, 13.001708984375, 14.02880859375, 15.055908203125, 16.0830078125, 17.110107421875, 18.13720703125, 19.164306640625, 20.19140625, 21.218505859375, 22.24560546875, 23.272705078125, 24.2998046875, 25.326904296875, 26.35400390625, 27.381103515625, 28.408203125, 29.435302734375, 30.46240234375, 31.489501953125, 32.5166015625, 33.543701171875, 34.57080078125, 35.597900390625, 36.625]}, "gradients/distilbert.transformer.layer.2.output_layer_norm.weight": {"_type": "histogram", "values": [1.0, 0.0, 1.0, 0.0, 1.0, 1.0, 0.0, 1.0, 1.0, 4.0, 9.0, 2.0, 10.0, 5.0, 5.0, 10.0, 19.0, 19.0, 26.0, 33.0, 44.0, 64.0, 70.0, 73.0, 57.0, 62.0, 33.0, 47.0, 29.0, 24.0, 22.0, 19.0, 15.0, 12.0, 11.0, 7.0, 5.0, 5.0, 5.0, 3.0, 3.0, 0.0, 1.0, 2.0, 0.0, 3.0, 1.0, 1.0, 0.0, 0.0, 0.0, 1.0, 0.0, 0.0, 0.0, 0.0, 0.0, 0.0, 0.0, 0.0, 0.0, 0.0, 0.0, 1.0], "bins": [-17.332048416137695, -16.59896469116211, -15.86588191986084, -15.13279914855957, -14.399715423583984, -13.666631698608398, -12.933548927307129, -12.20046615600586, -11.467382431030273, -10.734298706054688, -10.001215934753418, -9.268133163452148, -8.535049438476562, -7.801966190338135, -7.068882942199707, -6.335799694061279, -5.602716445922852, -4.869633197784424, -4.136549949645996, -3.4034667015075684, -2.6703834533691406, -1.937300205230713, -1.2042169570922852, -0.4711337089538574, 0.2619495391845703, 0.995032787322998, 1.7281160354614258, 2.4611992835998535, 3.1942825317382812, 3.927365779876709, 4.660449028015137, 5.3935322761535645, 6.126613616943359, 6.859696865081787, 7.592780113220215, 8.325862884521484, 9.05894660949707, 9.792030334472656, 10.525113105773926, 11.258195877075195, 11.991279602050781, 12.724363327026367, 13.457446098327637, 14.190528869628906, 14.923612594604492, 15.656696319580078, 16.38977813720703, 17.122861862182617, 17.855945587158203, 18.58902931213379, 19.322113037109375, 20.055194854736328, 20.788278579711914, 21.5213623046875, 22.254444122314453, 22.98752784729004, 23.720611572265625, 24.45369529724121, 25.186779022216797, 25.91986083984375, 26.652944564819336, 27.386028289794922, 28.119110107421875, 28.85219383239746, 29.585277557373047]}, "gradients/distilbert.transformer.layer.2.output_layer_norm.bias": {"_type": "histogram", "values": [3.0, 0.0, 1.0, 0.0, 1.0, 0.0, 1.0, 3.0, 3.0, 4.0, 5.0, 6.0, 6.0, 6.0, 5.0, 5.0, 8.0, 9.0, 20.0, 16.0, 20.0, 18.0, 19.0, 27.0, 18.0, 15.0, 29.0, 29.0, 27.0, 25.0, 29.0, 43.0, 30.0, 28.0, 38.0, 23.0, 17.0, 28.0, 17.0, 23.0, 17.0, 17.0, 13.0, 15.0, 12.0, 16.0, 7.0, 5.0, 12.0, 7.0, 9.0, 9.0, 2.0, 1.0, 5.0, 3.0, 4.0, 2.0, 1.0, 1.0, 0.0, 0.0, 0.0, 5.0], "bins": [-16.61248016357422, -16.0880069732666, -15.563533782958984, -15.039061546325684, -14.514588356018066, -13.99011516571045, -13.465642929077148, -12.941169738769531, -12.416696548461914, -11.892223358154297, -11.36775016784668, -10.843277931213379, -10.318804740905762, -9.794331550598145, -9.269859313964844, -8.745386123657227, -8.22091293334961, -7.696439743041992, -7.171967029571533, -6.647494316101074, -6.123021125793457, -5.59854793548584, -5.074075222015381, -4.549602508544922, -4.025129318237305, -3.5006563663482666, -2.9761834144592285, -2.4517104625701904, -1.9272375106811523, -1.4027645587921143, -0.8782916069030762, -0.3538186550140381, 0.170654296875, 0.6951272487640381, 1.2196002006530762, 1.7440731525421143, 2.2685461044311523, 2.7930190563201904, 3.3174920082092285, 3.8419649600982666, 4.366437911987305, 4.890911102294922, 5.415383815765381, 5.93985652923584, 6.464329719543457, 6.988802909851074, 7.513275623321533, 8.037748336791992, 8.56222152709961, 9.086694717407227, 9.611167907714844, 10.135640144348145, 10.660113334655762, 11.184586524963379, 11.70905876159668, 12.233531951904297, 12.758005142211914, 13.282478332519531, 13.806951522827148, 14.33142375946045, 14.855896949768066, 15.380370140075684, 15.904842376708984, 16.4293155670166, 16.95378875732422]}, "gradients/distilbert.transformer.layer.2.ffn.lin2.weight": {"_type": "histogram", "values": [3.0, 2.0, 1.0, 4.0, 2.0, 4.0, 9.0, 11.0, 20.0, 33.0, 36.0, 41.0, 76.0, 147.0, 182.0, 236.0, 366.0, 618.0, 895.0, 1497.0, 2463.0, 4324.0, 7947.0, 15717.0, 36798.0, 108829.0, 489374.0, 1233200.0, 320537.0, 78101.0, 28303.0, 12919.0, 6625.0, 3707.0, 2204.0, 1370.0, 838.0, 527.0, 372.0, 281.0, 206.0, 128.0, 101.0, 71.0, 38.0, 28.0, 25.0, 20.0, 10.0, 13.0, 6.0, 12.0, 3.0, 4.0, 2.0, 3.0, 3.0, 1.0, 1.0, 0.0, 0.0, 0.0, 1.0, 1.0], "bins": [-24.875, -23.96630859375, -23.0576171875, -22.14892578125, -21.240234375, -20.33154296875, -19.4228515625, -18.51416015625, -17.60546875, -16.69677734375, -15.7880859375, -14.87939453125, -13.970703125, -13.06201171875, -12.1533203125, -11.24462890625, -10.3359375, -9.42724609375, -8.5185546875, -7.60986328125, -6.701171875, -5.79248046875, -4.8837890625, -3.97509765625, -3.06640625, -2.15771484375, -1.2490234375, -0.34033203125, 0.568359375, 1.47705078125, 2.3857421875, 3.29443359375, 4.203125, 5.11181640625, 6.0205078125, 6.92919921875, 7.837890625, 8.74658203125, 9.6552734375, 10.56396484375, 11.47265625, 12.38134765625, 13.2900390625, 14.19873046875, 15.107421875, 16.01611328125, 16.9248046875, 17.83349609375, 18.7421875, 19.65087890625, 20.5595703125, 21.46826171875, 22.376953125, 23.28564453125, 24.1943359375, 25.10302734375, 26.01171875, 26.92041015625, 27.8291015625, 28.73779296875, 29.646484375, 30.55517578125, 31.4638671875, 32.37255859375, 33.28125]}, "gradients/distilbert.transformer.layer.2.ffn.lin2.bias": {"_type": "histogram", "values": [2.0, 0.0, 0.0, 1.0, 2.0, 3.0, 3.0, 0.0, 1.0, 5.0, 7.0, 6.0, 7.0, 8.0, 5.0, 11.0, 13.0, 11.0, 10.0, 22.0, 15.0, 23.0, 25.0, 34.0, 26.0, 34.0, 37.0, 34.0, 42.0, 36.0, 33.0, 38.0, 29.0, 37.0, 29.0, 25.0, 21.0, 24.0, 14.0, 9.0, 12.0, 12.0, 7.0, 11.0, 8.0, 8.0, 7.0, 3.0, 1.0, 3.0, 0.0, 2.0, 1.0, 3.0, 0.0, 3.0, 1.0, 0.0, 1.0, 0.0, 0.0, 0.0, 1.0, 2.0], "bins": [-14.6640625, -14.1578369140625, -13.651611328125, -13.1453857421875, -12.63916015625, -12.1329345703125, -11.626708984375, -11.1204833984375, -10.6142578125, -10.1080322265625, -9.601806640625, -9.0955810546875, -8.58935546875, -8.0831298828125, -7.576904296875, -7.0706787109375, -6.564453125, -6.0582275390625, -5.552001953125, -5.0457763671875, -4.53955078125, -4.0333251953125, -3.527099609375, -3.0208740234375, -2.5146484375, -2.0084228515625, -1.502197265625, -0.9959716796875, -0.48974609375, 0.0164794921875, 0.522705078125, 1.0289306640625, 1.53515625, 2.0413818359375, 2.547607421875, 3.0538330078125, 3.56005859375, 4.0662841796875, 4.572509765625, 5.0787353515625, 5.5849609375, 6.0911865234375, 6.597412109375, 7.1036376953125, 7.60986328125, 8.1160888671875, 8.622314453125, 9.1285400390625, 9.634765625, 10.1409912109375, 10.647216796875, 11.1534423828125, 11.65966796875, 12.1658935546875, 12.672119140625, 13.1783447265625, 13.6845703125, 14.1907958984375, 14.697021484375, 15.2032470703125, 15.70947265625, 16.2156982421875, 16.721923828125, 17.2281494140625, 17.734375]}, "gradients/distilbert.transformer.layer.2.ffn.lin1.weight": {"_type": "histogram", "values": [1.0, 0.0, 0.0, 2.0, 1.0, 0.0, 0.0, 1.0, 1.0, 0.0, 1.0, 3.0, 3.0, 4.0, 3.0, 6.0, 7.0, 5.0, 9.0, 12.0, 30.0, 35.0, 72.0, 150.0, 650.0, 6018.0, 2005841.0, 342553.0, 3219.0, 412.0, 107.0, 52.0, 27.0, 24.0, 18.0, 11.0, 7.0, 2.0, 3.0, 1.0, 0.0, 0.0, 0.0, 0.0, 1.0, 2.0, 1.0, 0.0, 0.0, 0.0, 0.0, 0.0, 0.0, 0.0, 0.0, 0.0, 0.0, 0.0, 0.0, 0.0, 0.0, 0.0, 0.0, 1.0], "bins": [-328.0, -315.8046875, -303.609375, -291.4140625, -279.21875, -267.0234375, -254.828125, -242.6328125, -230.4375, -218.2421875, -206.046875, -193.8515625, -181.65625, -169.4609375, -157.265625, -145.0703125, -132.875, -120.6796875, -108.484375, -96.2890625, -84.09375, -71.8984375, -59.703125, -47.5078125, -35.3125, -23.1171875, -10.921875, 1.2734375, 13.46875, 25.6640625, 37.859375, 50.0546875, 62.25, 74.4453125, 86.640625, 98.8359375, 111.03125, 123.2265625, 135.421875, 147.6171875, 159.8125, 172.0078125, 184.203125, 196.3984375, 208.59375, 220.7890625, 232.984375, 245.1796875, 257.375, 269.5703125, 281.765625, 293.9609375, 306.15625, 318.3515625, 330.546875, 342.7421875, 354.9375, 367.1328125, 379.328125, 391.5234375, 403.71875, 415.9140625, 428.109375, 440.3046875, 452.5]}, "gradients/distilbert.transformer.layer.2.ffn.lin1.bias": {"_type": "histogram", "values": [1.0, 0.0, 0.0, 0.0, 0.0, 0.0, 0.0, 0.0, 0.0, 0.0, 0.0, 0.0, 0.0, 0.0, 0.0, 0.0, 1.0, 1.0, 1.0, 1.0, 0.0, 0.0, 1.0, 2.0, 1.0, 8.0, 11.0, 9.0, 17.0, 35.0, 43.0, 71.0, 112.0, 225.0, 546.0, 866.0, 509.0, 247.0, 136.0, 78.0, 42.0, 34.0, 17.0, 10.0, 6.0, 10.0, 7.0, 7.0, 1.0, 4.0, 3.0, 1.0, 0.0, 1.0, 1.0, 1.0, 1.0, 0.0, 0.0, 0.0, 0.0, 2.0, 1.0, 1.0], "bins": [-31.078125, -30.2021484375, -29.326171875, -28.4501953125, -27.57421875, -26.6982421875, -25.822265625, -24.9462890625, -24.0703125, -23.1943359375, -22.318359375, -21.4423828125, -20.56640625, -19.6904296875, -18.814453125, -17.9384765625, -17.0625, -16.1865234375, -15.310546875, -14.4345703125, -13.55859375, -12.6826171875, -11.806640625, -10.9306640625, -10.0546875, -9.1787109375, -8.302734375, -7.4267578125, -6.55078125, -5.6748046875, -4.798828125, -3.9228515625, -3.046875, -2.1708984375, -1.294921875, -0.4189453125, 0.45703125, 1.3330078125, 2.208984375, 3.0849609375, 3.9609375, 4.8369140625, 5.712890625, 6.5888671875, 7.46484375, 8.3408203125, 9.216796875, 10.0927734375, 10.96875, 11.8447265625, 12.720703125, 13.5966796875, 14.47265625, 15.3486328125, 16.224609375, 17.1005859375, 17.9765625, 18.8525390625, 19.728515625, 20.6044921875, 21.48046875, 22.3564453125, 23.232421875, 24.1083984375, 24.984375]}, "gradients/distilbert.transformer.layer.2.sa_layer_norm.weight": {"_type": "histogram", "values": [1.0, 0.0, 0.0, 0.0, 0.0, 0.0, 0.0, 0.0, 0.0, 0.0, 0.0, 0.0, 0.0, 0.0, 0.0, 0.0, 0.0, 0.0, 0.0, 0.0, 0.0, 0.0, 0.0, 0.0, 0.0, 0.0, 0.0, 0.0, 0.0, 0.0, 0.0, 0.0, 0.0, 0.0, 0.0, 0.0, 2.0, 5.0, 5.0, 13.0, 21.0, 33.0, 40.0, 73.0, 79.0, 115.0, 100.0, 86.0, 60.0, 54.0, 25.0, 16.0, 18.0, 6.0, 5.0, 5.0, 1.0, 3.0, 1.0, 0.0, 0.0, 0.0, 0.0, 1.0], "bins": [-118.04838562011719, -115.47422790527344, -112.90007781982422, -110.325927734375, -107.75177001953125, -105.1776123046875, -102.60346221923828, -100.02931213378906, -97.45515441894531, -94.88099670410156, -92.30684661865234, -89.73269653320312, -87.15853881835938, -84.58438110351562, -82.0102310180664, -79.43608093261719, -76.86192321777344, -74.28776550292969, -71.71361541748047, -69.13946533203125, -66.5653076171875, -63.991153717041016, -61.41699981689453, -58.84284591674805, -56.26869201660156, -53.69453811645508, -51.120384216308594, -48.54623031616211, -45.972076416015625, -43.39792251586914, -40.823768615722656, -38.24961471557617, -35.675453186035156, -33.10129928588867, -30.527145385742188, -27.952991485595703, -25.37883758544922, -22.804683685302734, -20.23052978515625, -17.656375885009766, -15.082221984863281, -12.508068084716797, -9.933914184570312, -7.359760284423828, -4.785606384277344, -2.2114524841308594, 0.362701416015625, 2.9368553161621094, 5.511009216308594, 8.085163116455078, 10.659317016601562, 13.233470916748047, 15.807624816894531, 18.381778717041016, 20.9559326171875, 23.530086517333984, 26.10424041748047, 28.678394317626953, 31.252548217773438, 33.82670211791992, 36.400856018066406, 38.97500991821289, 41.549163818359375, 44.12331771850586, 46.697471618652344]}, "gradients/distilbert.transformer.layer.2.sa_layer_norm.bias": {"_type": "histogram", "values": [1.0, 1.0, 1.0, 1.0, 0.0, 0.0, 0.0, 2.0, 2.0, 1.0, 2.0, 4.0, 2.0, 4.0, 4.0, 10.0, 8.0, 11.0, 10.0, 9.0, 24.0, 19.0, 18.0, 17.0, 21.0, 20.0, 18.0, 23.0, 28.0, 18.0, 28.0, 34.0, 32.0, 41.0, 12.0, 19.0, 13.0, 30.0, 23.0, 22.0, 28.0, 27.0, 20.0, 20.0, 16.0, 11.0, 15.0, 18.0, 17.0, 9.0, 12.0, 4.0, 8.0, 7.0, 1.0, 6.0, 1.0, 3.0, 3.0, 1.0, 4.0, 2.0, 0.0, 2.0], "bins": [-30.165273666381836, -29.27367401123047, -28.3820743560791, -27.490474700927734, -26.598876953125, -25.707275390625, -24.815677642822266, -23.9240779876709, -23.03247833251953, -22.140878677368164, -21.249279022216797, -20.35767936706543, -19.466079711914062, -18.574481964111328, -17.68288230895996, -16.791282653808594, -15.899682998657227, -15.00808334350586, -14.116483688354492, -13.224884986877441, -12.333285331726074, -11.441685676574707, -10.550086975097656, -9.658487319946289, -8.766887664794922, -7.875288009643555, -6.983688831329346, -6.092089653015137, -5.2004899978637695, -4.308890342712402, -3.4172911643981934, -2.5256919860839844, -1.6340904235839844, -0.7424910068511963, 0.1491084098815918, 1.0407078266143799, 1.932307243347168, 2.823906898498535, 3.715506076812744, 4.607105255126953, 5.49870491027832, 6.3903045654296875, 7.2819037437438965, 8.173502922058105, 9.065102577209473, 9.95670223236084, 10.84830093383789, 11.739900588989258, 12.631500244140625, 13.523099899291992, 14.41469955444336, 15.30629825592041, 16.197898864746094, 17.089496612548828, 17.981096267700195, 18.872695922851562, 19.76429557800293, 20.655895233154297, 21.547494888305664, 22.43909454345703, 23.330692291259766, 24.222293853759766, 25.1138916015625, 26.005491256713867, 26.897090911865234]}, "gradients/distilbert.transformer.layer.2.attention.out_lin.weight": {"_type": "histogram", "values": [2.0, 1.0, 0.0, 1.0, 0.0, 2.0, 2.0, 8.0, 8.0, 12.0, 18.0, 24.0, 29.0, 48.0, 89.0, 137.0, 233.0, 381.0, 650.0, 1131.0, 2002.0, 3468.0, 6315.0, 11267.0, 20491.0, 36352.0, 61891.0, 94992.0, 113895.0, 94013.0, 60961.0, 35630.0, 20174.0, 11229.0, 6228.0, 3526.0, 1875.0, 1099.0, 642.0, 384.0, 246.0, 141.0, 82.0, 53.0, 26.0, 12.0, 15.0, 7.0, 11.0, 8.0, 2.0, 3.0, 2.0, 1.0, 1.0, 2.0, 0.0, 0.0, 0.0, 1.0, 0.0, 0.0, 0.0, 1.0], "bins": [-56.5, -54.5166015625, -52.533203125, -50.5498046875, -48.56640625, -46.5830078125, -44.599609375, -42.6162109375, -40.6328125, -38.6494140625, -36.666015625, -34.6826171875, -32.69921875, -30.7158203125, -28.732421875, -26.7490234375, -24.765625, -22.7822265625, -20.798828125, -18.8154296875, -16.83203125, -14.8486328125, -12.865234375, -10.8818359375, -8.8984375, -6.9150390625, -4.931640625, -2.9482421875, -0.96484375, 1.0185546875, 3.001953125, 4.9853515625, 6.96875, 8.9521484375, 10.935546875, 12.9189453125, 14.90234375, 16.8857421875, 18.869140625, 20.8525390625, 22.8359375, 24.8193359375, 26.802734375, 28.7861328125, 30.76953125, 32.7529296875, 34.736328125, 36.7197265625, 38.703125, 40.6865234375, 42.669921875, 44.6533203125, 46.63671875, 48.6201171875, 50.603515625, 52.5869140625, 54.5703125, 56.5537109375, 58.537109375, 60.5205078125, 62.50390625, 64.4873046875, 66.470703125, 68.4541015625, 70.4375]}, "gradients/distilbert.transformer.layer.2.attention.out_lin.bias": {"_type": "histogram", "values": [1.0, 0.0, 2.0, 1.0, 0.0, 0.0, 0.0, 1.0, 0.0, 3.0, 3.0, 4.0, 1.0, 3.0, 6.0, 12.0, 6.0, 11.0, 10.0, 16.0, 20.0, 14.0, 26.0, 14.0, 19.0, 21.0, 24.0, 26.0, 27.0, 18.0, 22.0, 31.0, 42.0, 34.0, 20.0, 14.0, 17.0, 24.0, 25.0, 30.0, 28.0, 18.0, 17.0, 15.0, 24.0, 13.0, 18.0, 9.0, 12.0, 10.0, 13.0, 5.0, 4.0, 5.0, 7.0, 3.0, 5.0, 2.0, 5.0, 0.0, 2.0, 2.0, 2.0, 1.0], "bins": [-26.125, -25.3486328125, -24.572265625, -23.7958984375, -23.01953125, -22.2431640625, -21.466796875, -20.6904296875, -19.9140625, -19.1376953125, -18.361328125, -17.5849609375, -16.80859375, -16.0322265625, -15.255859375, -14.4794921875, -13.703125, -12.9267578125, -12.150390625, -11.3740234375, -10.59765625, -9.8212890625, -9.044921875, -8.2685546875, -7.4921875, -6.7158203125, -5.939453125, -5.1630859375, -4.38671875, -3.6103515625, -2.833984375, -2.0576171875, -1.28125, -0.5048828125, 0.271484375, 1.0478515625, 1.82421875, 2.6005859375, 3.376953125, 4.1533203125, 4.9296875, 5.7060546875, 6.482421875, 7.2587890625, 8.03515625, 8.8115234375, 9.587890625, 10.3642578125, 11.140625, 11.9169921875, 12.693359375, 13.4697265625, 14.24609375, 15.0224609375, 15.798828125, 16.5751953125, 17.3515625, 18.1279296875, 18.904296875, 19.6806640625, 20.45703125, 21.2333984375, 22.009765625, 22.7861328125, 23.5625]}, "gradients/distilbert.transformer.layer.2.attention.v_lin.weight": {"_type": "histogram", "values": [1.0, 1.0, 2.0, 2.0, 1.0, 2.0, 0.0, 0.0, 1.0, 2.0, 2.0, 4.0, 8.0, 6.0, 6.0, 7.0, 6.0, 9.0, 5.0, 13.0, 15.0, 12.0, 11.0, 19.0, 19.0, 20.0, 24.0, 27.0, 31.0, 75.0, 785.0, 15376.0, 411459.0, 155806.0, 5424.0, 310.0, 54.0, 29.0, 30.0, 26.0, 19.0, 23.0, 18.0, 14.0, 15.0, 22.0, 14.0, 8.0, 8.0, 8.0, 11.0, 4.0, 4.0, 5.0, 0.0, 3.0, 7.0, 1.0, 1.0, 3.0, 0.0, 3.0, 1.0, 2.0], "bins": [-614.0, -595.296875, -576.59375, -557.890625, -539.1875, -520.484375, -501.78125, -483.078125, -464.375, -445.671875, -426.96875, -408.265625, -389.5625, -370.859375, -352.15625, -333.453125, -314.75, -296.046875, -277.34375, -258.640625, -239.9375, -221.234375, -202.53125, -183.828125, -165.125, -146.421875, -127.71875, -109.015625, -90.3125, -71.609375, -52.90625, -34.203125, -15.5, 3.203125, 21.90625, 40.609375, 59.3125, 78.015625, 96.71875, 115.421875, 134.125, 152.828125, 171.53125, 190.234375, 208.9375, 227.640625, 246.34375, 265.046875, 283.75, 302.453125, 321.15625, 339.859375, 358.5625, 377.265625, 395.96875, 414.671875, 433.375, 452.078125, 470.78125, 489.484375, 508.1875, 526.890625, 545.59375, 564.296875, 583.0]}, "gradients/distilbert.transformer.layer.2.attention.v_lin.bias": {"_type": "histogram", "values": [2.0, 0.0, 2.0, 1.0, 1.0, 3.0, 2.0, 3.0, 2.0, 7.0, 5.0, 4.0, 3.0, 12.0, 7.0, 9.0, 6.0, 15.0, 17.0, 18.0, 17.0, 19.0, 28.0, 16.0, 30.0, 27.0, 34.0, 24.0, 37.0, 37.0, 18.0, 29.0, 31.0, 35.0, 34.0, 23.0, 27.0, 21.0, 20.0, 18.0, 19.0, 12.0, 11.0, 17.0, 6.0, 9.0, 6.0, 8.0, 6.0, 7.0, 5.0, 6.0, 1.0, 1.0, 1.0, 1.0, 1.0, 1.0, 1.0, 1.0, 2.0, 1.0, 0.0, 1.0], "bins": [-53.5, -51.7548828125, -50.009765625, -48.2646484375, -46.51953125, -44.7744140625, -43.029296875, -41.2841796875, -39.5390625, -37.7939453125, -36.048828125, -34.3037109375, -32.55859375, -30.8134765625, -29.068359375, -27.3232421875, -25.578125, -23.8330078125, -22.087890625, -20.3427734375, -18.59765625, -16.8525390625, -15.107421875, -13.3623046875, -11.6171875, -9.8720703125, -8.126953125, -6.3818359375, -4.63671875, -2.8916015625, -1.146484375, 0.5986328125, 2.34375, 4.0888671875, 5.833984375, 7.5791015625, 9.32421875, 11.0693359375, 12.814453125, 14.5595703125, 16.3046875, 18.0498046875, 19.794921875, 21.5400390625, 23.28515625, 25.0302734375, 26.775390625, 28.5205078125, 30.265625, 32.0107421875, 33.755859375, 35.5009765625, 37.24609375, 38.9912109375, 40.736328125, 42.4814453125, 44.2265625, 45.9716796875, 47.716796875, 49.4619140625, 51.20703125, 52.9521484375, 54.697265625, 56.4423828125, 58.1875]}, "gradients/distilbert.transformer.layer.2.attention.k_lin.weight": {"_type": "histogram", "values": [1.0, 0.0, 1.0, 0.0, 0.0, 0.0, 0.0, 0.0, 1.0, 0.0, 1.0, 3.0, 0.0, 0.0, 3.0, 1.0, 6.0, 10.0, 14.0, 17.0, 24.0, 39.0, 51.0, 127.0, 207.0, 364.0, 766.0, 1493.0, 3050.0, 6910.0, 16949.0, 49135.0, 197098.0, 224978.0, 55868.0, 18473.0, 7453.0, 3413.0, 1620.0, 761.0, 446.0, 232.0, 131.0, 74.0, 46.0, 18.0, 13.0, 13.0, 3.0, 2.0, 3.0, 0.0, 1.0, 1.0, 0.0, 1.0, 1.0, 0.0, 0.0, 0.0, 0.0, 1.0, 0.0, 1.0], "bins": [-145.625, -141.21875, -136.8125, -132.40625, -128.0, -123.59375, -119.1875, -114.78125, -110.375, -105.96875, -101.5625, -97.15625, -92.75, -88.34375, -83.9375, -79.53125, -75.125, -70.71875, -66.3125, -61.90625, -57.5, -53.09375, -48.6875, -44.28125, -39.875, -35.46875, -31.0625, -26.65625, -22.25, -17.84375, -13.4375, -9.03125, -4.625, -0.21875, 4.1875, 8.59375, 13.0, 17.40625, 21.8125, 26.21875, 30.625, 35.03125, 39.4375, 43.84375, 48.25, 52.65625, 57.0625, 61.46875, 65.875, 70.28125, 74.6875, 79.09375, 83.5, 87.90625, 92.3125, 96.71875, 101.125, 105.53125, 109.9375, 114.34375, 118.75, 123.15625, 127.5625, 131.96875, 136.375]}, "gradients/distilbert.transformer.layer.2.attention.k_lin.bias": {"_type": "histogram", "values": [1.0, 0.0, 0.0, 0.0, 0.0, 0.0, 1.0, 0.0, 0.0, 1.0, 0.0, 1.0, 1.0, 0.0, 1.0, 0.0, 1.0, 1.0, 0.0, 2.0, 1.0, 6.0, 5.0, 7.0, 6.0, 3.0, 15.0, 23.0, 20.0, 18.0, 41.0, 62.0, 53.0, 110.0, 114.0, 87.0, 46.0, 33.0, 16.0, 19.0, 13.0, 14.0, 8.0, 7.0, 9.0, 5.0, 2.0, 0.0, 4.0, 2.0, 1.0, 2.0, 0.0, 1.0, 2.0, 0.0, 1.0, 0.0, 0.0, 1.0, 0.0, 0.0, 0.0, 1.0], "bins": [-0.014739990234375, -0.014306068420410156, -0.013872146606445312, -0.013438224792480469, -0.013004302978515625, -0.012570381164550781, -0.012136459350585938, -0.011702537536621094, -0.01126861572265625, -0.010834693908691406, -0.010400772094726562, -0.009966850280761719, -0.009532928466796875, -0.009099006652832031, -0.008665084838867188, -0.008231163024902344, -0.0077972412109375, -0.007363319396972656, -0.0069293975830078125, -0.006495475769042969, -0.006061553955078125, -0.005627632141113281, -0.0051937103271484375, -0.004759788513183594, -0.00432586669921875, -0.0038919448852539062, -0.0034580230712890625, -0.0030241012573242188, -0.002590179443359375, -0.0021562576293945312, -0.0017223358154296875, -0.0012884140014648438, -0.0008544921875, -0.00042057037353515625, 1.33514404296875e-05, 0.00044727325439453125, 0.000881195068359375, 0.0013151168823242188, 0.0017490386962890625, 0.0021829605102539062, 0.00261688232421875, 0.0030508041381835938, 0.0034847259521484375, 0.003918647766113281, 0.004352569580078125, 0.004786491394042969, 0.0052204132080078125, 0.005654335021972656, 0.0060882568359375, 0.006522178649902344, 0.0069561004638671875, 0.007390022277832031, 0.007823944091796875, 0.008257865905761719, 0.008691787719726562, 0.009125709533691406, 0.00955963134765625, 0.009993553161621094, 0.010427474975585938, 0.010861396789550781, 0.011295318603515625, 0.011729240417480469, 0.012163162231445312, 0.012597084045410156, 0.013031005859375]}, "gradients/distilbert.transformer.layer.2.attention.q_lin.weight": {"_type": "histogram", "values": [1.0, 0.0, 0.0, 1.0, 1.0, 3.0, 2.0, 0.0, 2.0, 3.0, 3.0, 1.0, 1.0, 2.0, 2.0, 5.0, 3.0, 5.0, 7.0, 1.0, 9.0, 12.0, 10.0, 17.0, 22.0, 20.0, 24.0, 33.0, 35.0, 22.0, 48.0, 101.0, 3038.0, 570911.0, 15014.0, 167.0, 48.0, 40.0, 34.0, 27.0, 22.0, 17.0, 14.0, 19.0, 13.0, 10.0, 10.0, 11.0, 3.0, 4.0, 6.0, 1.0, 2.0, 4.0, 3.0, 1.0, 3.0, 1.0, 2.0, 1.0, 0.0, 1.0, 0.0, 1.0], "bins": [-608.0, -589.921875, -571.84375, -553.765625, -535.6875, -517.609375, -499.53125, -481.453125, -463.375, -445.296875, -427.21875, -409.140625, -391.0625, -372.984375, -354.90625, -336.828125, -318.75, -300.671875, -282.59375, -264.515625, -246.4375, -228.359375, -210.28125, -192.203125, -174.125, -156.046875, -137.96875, -119.890625, -101.8125, -83.734375, -65.65625, -47.578125, -29.5, -11.421875, 6.65625, 24.734375, 42.8125, 60.890625, 78.96875, 97.046875, 115.125, 133.203125, 151.28125, 169.359375, 187.4375, 205.515625, 223.59375, 241.671875, 259.75, 277.828125, 295.90625, 313.984375, 332.0625, 350.140625, 368.21875, 386.296875, 404.375, 422.453125, 440.53125, 458.609375, 476.6875, 494.765625, 512.84375, 530.921875, 549.0]}, "gradients/distilbert.transformer.layer.2.attention.q_lin.bias": {"_type": "histogram", "values": [1.0, 0.0, 1.0, 0.0, 1.0, 2.0, 2.0, 2.0, 3.0, 4.0, 2.0, 1.0, 5.0, 3.0, 5.0, 7.0, 8.0, 11.0, 12.0, 12.0, 17.0, 17.0, 16.0, 27.0, 24.0, 36.0, 36.0, 43.0, 43.0, 29.0, 50.0, 32.0, 44.0, 28.0, 21.0, 36.0, 33.0, 21.0, 22.0, 22.0, 15.0, 9.0, 13.0, 9.0, 2.0, 6.0, 5.0, 3.0, 7.0, 0.0, 2.0, 1.0, 1.0, 3.0, 4.0, 1.0, 0.0, 2.0, 3.0, 1.0, 0.0, 1.0, 0.0, 1.0], "bins": [-30.3125, -29.3076171875, -28.302734375, -27.2978515625, -26.29296875, -25.2880859375, -24.283203125, -23.2783203125, -22.2734375, -21.2685546875, -20.263671875, -19.2587890625, -18.25390625, -17.2490234375, -16.244140625, -15.2392578125, -14.234375, -13.2294921875, -12.224609375, -11.2197265625, -10.21484375, -9.2099609375, -8.205078125, -7.2001953125, -6.1953125, -5.1904296875, -4.185546875, -3.1806640625, -2.17578125, -1.1708984375, -0.166015625, 0.8388671875, 1.84375, 2.8486328125, 3.853515625, 4.8583984375, 5.86328125, 6.8681640625, 7.873046875, 8.8779296875, 9.8828125, 10.8876953125, 11.892578125, 12.8974609375, 13.90234375, 14.9072265625, 15.912109375, 16.9169921875, 17.921875, 18.9267578125, 19.931640625, 20.9365234375, 21.94140625, 22.9462890625, 23.951171875, 24.9560546875, 25.9609375, 26.9658203125, 27.970703125, 28.9755859375, 29.98046875, 30.9853515625, 31.990234375, 32.9951171875, 34.0]}, "gradients/distilbert.transformer.layer.1.output_layer_norm.weight": {"_type": "histogram", "values": [1.0, 0.0, 0.0, 0.0, 0.0, 0.0, 0.0, 0.0, 0.0, 0.0, 0.0, 0.0, 0.0, 0.0, 0.0, 0.0, 0.0, 0.0, 0.0, 1.0, 0.0, 1.0, 3.0, 6.0, 11.0, 27.0, 65.0, 126.0, 182.0, 172.0, 104.0, 42.0, 16.0, 3.0, 2.0, 4.0, 0.0, 0.0, 0.0, 0.0, 0.0, 0.0, 0.0, 0.0, 0.0, 0.0, 0.0, 0.0, 0.0, 0.0, 1.0, 0.0, 0.0, 0.0, 0.0, 0.0, 0.0, 0.0, 0.0, 0.0, 0.0, 0.0, 0.0, 1.0], "bins": [-347.0157165527344, -334.9830322265625, -322.9503479003906, -310.9176330566406, -298.88494873046875, -286.8522644042969, -274.819580078125, -262.786865234375, -250.75418090820312, -238.72149658203125, -226.6887969970703, -214.65611267089844, -202.6234130859375, -190.59072875976562, -178.55804443359375, -166.5253448486328, -154.49266052246094, -142.45997619628906, -130.42727661132812, -118.39459228515625, -106.36189270019531, -94.32920837402344, -82.29651641845703, -70.26382446289062, -58.23113250732422, -46.19844055175781, -34.165748596191406, -22.133060455322266, -10.10036849975586, 1.9323234558105469, 13.965011596679688, 25.997703552246094, 38.0303955078125, 50.063087463378906, 62.09577941894531, 74.12846374511719, 86.16116333007812, 98.19384765625, 110.2265396118164, 122.25923156738281, 134.29193115234375, 146.32461547851562, 158.35731506347656, 170.38999938964844, 182.42269897460938, 194.45538330078125, 206.48806762695312, 218.52076721191406, 230.55345153808594, 242.5861358642578, 254.61883544921875, 266.6515197753906, 278.6842041015625, 290.7169189453125, 302.7496032714844, 314.78228759765625, 326.8149719238281, 338.84765625, 350.8803405761719, 362.9130554199219, 374.94573974609375, 386.9784240722656, 399.0111083984375, 411.0438232421875, 423.0765075683594]}, "gradients/distilbert.transformer.layer.1.output_layer_norm.bias": {"_type": "histogram", "values": [2.0, 1.0, 1.0, 1.0, 0.0, 0.0, 1.0, 6.0, 3.0, 2.0, 4.0, 4.0, 5.0, 4.0, 4.0, 9.0, 9.0, 7.0, 8.0, 13.0, 8.0, 20.0, 22.0, 17.0, 24.0, 23.0, 31.0, 20.0, 28.0, 26.0, 28.0, 40.0, 25.0, 21.0, 31.0, 25.0, 26.0, 29.0, 23.0, 32.0, 24.0, 25.0, 19.0, 12.0, 14.0, 9.0, 17.0, 11.0, 6.0, 6.0, 9.0, 10.0, 6.0, 6.0, 3.0, 1.0, 0.0, 0.0, 3.0, 2.0, 1.0, 0.0, 0.0, 1.0], "bins": [-147.42718505859375, -142.8941192626953, -138.3610382080078, -133.82797241210938, -129.29489135742188, -124.76182556152344, -120.22875213623047, -115.6956787109375, -111.16261291503906, -106.6295394897461, -102.09646606445312, -97.56340026855469, -93.03032684326172, -88.49725341796875, -83.96417999267578, -79.43110656738281, -74.89803314208984, -70.36495971679688, -65.8318862915039, -61.2988166809082, -56.7657470703125, -52.23267364501953, -47.69960021972656, -43.166526794433594, -38.63345718383789, -34.10038375854492, -29.56731414794922, -25.03424072265625, -20.501169204711914, -15.968097686767578, -11.43502426147461, -6.901952743530273, -2.3688812255859375, 2.1641907691955566, 6.697262763977051, 11.230335235595703, 15.763406753540039, 20.296478271484375, 24.829551696777344, 29.36262321472168, 33.895694732666016, 38.428768157958984, 42.96183776855469, 47.494911193847656, 52.027984619140625, 56.56105422973633, 61.0941276550293, 65.627197265625, 70.16027069091797, 74.69334411621094, 79.2264175415039, 83.75949096679688, 88.29255676269531, 92.82563018798828, 97.35870361328125, 101.89177703857422, 106.42485046386719, 110.95792388916016, 115.49099731445312, 120.02406311035156, 124.55713653564453, 129.0902099609375, 133.623291015625, 138.15635681152344, 142.68942260742188]}, "gradients/distilbert.transformer.layer.1.ffn.lin2.weight": {"_type": "histogram", "values": [2.0, 0.0, 1.0, 3.0, 2.0, 3.0, 5.0, 4.0, 16.0, 11.0, 23.0, 37.0, 47.0, 58.0, 82.0, 123.0, 167.0, 244.0, 322.0, 553.0, 749.0, 1138.0, 1713.0, 2635.0, 4478.0, 7668.0, 14673.0, 30556.0, 74382.0, 199703.0, 525278.0, 806702.0, 414705.0, 156936.0, 60482.0, 25718.0, 12671.0, 6729.0, 3866.0, 2313.0, 1502.0, 944.0, 629.0, 420.0, 299.0, 202.0, 149.0, 112.0, 64.0, 51.0, 28.0, 21.0, 20.0, 14.0, 14.0, 9.0, 5.0, 6.0, 2.0, 3.0, 1.0, 1.0, 1.0, 1.0], "bins": [-93.1875, -90.2177734375, -87.248046875, -84.2783203125, -81.30859375, -78.3388671875, -75.369140625, -72.3994140625, -69.4296875, -66.4599609375, -63.490234375, -60.5205078125, -57.55078125, -54.5810546875, -51.611328125, -48.6416015625, -45.671875, -42.7021484375, -39.732421875, -36.7626953125, -33.79296875, -30.8232421875, -27.853515625, -24.8837890625, -21.9140625, -18.9443359375, -15.974609375, -13.0048828125, -10.03515625, -7.0654296875, -4.095703125, -1.1259765625, 1.84375, 4.8134765625, 7.783203125, 10.7529296875, 13.72265625, 16.6923828125, 19.662109375, 22.6318359375, 25.6015625, 28.5712890625, 31.541015625, 34.5107421875, 37.48046875, 40.4501953125, 43.419921875, 46.3896484375, 49.359375, 52.3291015625, 55.298828125, 58.2685546875, 61.23828125, 64.2080078125, 67.177734375, 70.1474609375, 73.1171875, 76.0869140625, 79.056640625, 82.0263671875, 84.99609375, 87.9658203125, 90.935546875, 93.9052734375, 96.875]}, "gradients/distilbert.transformer.layer.1.ffn.lin2.bias": {"_type": "histogram", "values": [1.0, 0.0, 1.0, 0.0, 0.0, 1.0, 0.0, 0.0, 1.0, 3.0, 1.0, 2.0, 5.0, 7.0, 10.0, 3.0, 6.0, 7.0, 8.0, 12.0, 9.0, 12.0, 22.0, 14.0, 22.0, 19.0, 17.0, 28.0, 26.0, 28.0, 30.0, 39.0, 31.0, 23.0, 29.0, 29.0, 41.0, 22.0, 30.0, 26.0, 22.0, 25.0, 29.0, 18.0, 17.0, 8.0, 14.0, 10.0, 14.0, 6.0, 8.0, 10.0, 5.0, 4.0, 2.0, 4.0, 3.0, 0.0, 1.0, 1.0, 1.0, 0.0, 0.0, 1.0], "bins": [-126.1875, -122.43359375, -118.6796875, -114.92578125, -111.171875, -107.41796875, -103.6640625, -99.91015625, -96.15625, -92.40234375, -88.6484375, -84.89453125, -81.140625, -77.38671875, -73.6328125, -69.87890625, -66.125, -62.37109375, -58.6171875, -54.86328125, -51.109375, -47.35546875, -43.6015625, -39.84765625, -36.09375, -32.33984375, -28.5859375, -24.83203125, -21.078125, -17.32421875, -13.5703125, -9.81640625, -6.0625, -2.30859375, 1.4453125, 5.19921875, 8.953125, 12.70703125, 16.4609375, 20.21484375, 23.96875, 27.72265625, 31.4765625, 35.23046875, 38.984375, 42.73828125, 46.4921875, 50.24609375, 54.0, 57.75390625, 61.5078125, 65.26171875, 69.015625, 72.76953125, 76.5234375, 80.27734375, 84.03125, 87.78515625, 91.5390625, 95.29296875, 99.046875, 102.80078125, 106.5546875, 110.30859375, 114.0625]}, "gradients/distilbert.transformer.layer.1.ffn.lin1.weight": {"_type": "histogram", "values": [1.0, 0.0, 0.0, 0.0, 0.0, 0.0, 0.0, 0.0, 2.0, 0.0, 1.0, 0.0, 1.0, 2.0, 0.0, 2.0, 2.0, 2.0, 4.0, 3.0, 8.0, 13.0, 4.0, 15.0, 13.0, 23.0, 41.0, 53.0, 100.0, 150.0, 334.0, 2537.0, 2300024.0, 54776.0, 628.0, 224.0, 120.0, 57.0, 36.0, 31.0, 27.0, 19.0, 13.0, 5.0, 4.0, 5.0, 4.0, 3.0, 0.0, 3.0, 2.0, 0.0, 1.0, 1.0, 0.0, 0.0, 0.0, 0.0, 0.0, 0.0, 0.0, 0.0, 0.0, 2.0], "bins": [-2494.0, -2417.84375, -2341.6875, -2265.53125, -2189.375, -2113.21875, -2037.0625, -1960.90625, -1884.75, -1808.59375, -1732.4375, -1656.28125, -1580.125, -1503.96875, -1427.8125, -1351.65625, -1275.5, -1199.34375, -1123.1875, -1047.03125, -970.875, -894.71875, -818.5625, -742.40625, -666.25, -590.09375, -513.9375, -437.78125, -361.625, -285.46875, -209.3125, -133.15625, -57.0, 19.15625, 95.3125, 171.46875, 247.625, 323.78125, 399.9375, 476.09375, 552.25, 628.40625, 704.5625, 780.71875, 856.875, 933.03125, 1009.1875, 1085.34375, 1161.5, 1237.65625, 1313.8125, 1389.96875, 1466.125, 1542.28125, 1618.4375, 1694.59375, 1770.75, 1846.90625, 1923.0625, 1999.21875, 2075.375, 2151.53125, 2227.6875, 2303.84375, 2380.0]}, "gradients/distilbert.transformer.layer.1.ffn.lin1.bias": {"_type": "histogram", "values": [1.0, 0.0, 0.0, 0.0, 0.0, 0.0, 0.0, 0.0, 0.0, 0.0, 0.0, 0.0, 0.0, 0.0, 1.0, 0.0, 1.0, 3.0, 3.0, 0.0, 3.0, 2.0, 4.0, 7.0, 6.0, 8.0, 15.0, 19.0, 30.0, 42.0, 68.0, 100.0, 176.0, 305.0, 526.0, 678.0, 437.0, 234.0, 129.0, 90.0, 51.0, 38.0, 30.0, 11.0, 13.0, 9.0, 4.0, 7.0, 2.0, 5.0, 4.0, 3.0, 1.0, 1.0, 2.0, 0.0, 2.0, 0.0, 0.0, 0.0, 0.0, 0.0, 0.0, 1.0], "bins": [-137.5, -133.60546875, -129.7109375, -125.81640625, -121.921875, -118.02734375, -114.1328125, -110.23828125, -106.34375, -102.44921875, -98.5546875, -94.66015625, -90.765625, -86.87109375, -82.9765625, -79.08203125, -75.1875, -71.29296875, -67.3984375, -63.50390625, -59.609375, -55.71484375, -51.8203125, -47.92578125, -44.03125, -40.13671875, -36.2421875, -32.34765625, -28.453125, -24.55859375, -20.6640625, -16.76953125, -12.875, -8.98046875, -5.0859375, -1.19140625, 2.703125, 6.59765625, 10.4921875, 14.38671875, 18.28125, 22.17578125, 26.0703125, 29.96484375, 33.859375, 37.75390625, 41.6484375, 45.54296875, 49.4375, 53.33203125, 57.2265625, 61.12109375, 65.015625, 68.91015625, 72.8046875, 76.69921875, 80.59375, 84.48828125, 88.3828125, 92.27734375, 96.171875, 100.06640625, 103.9609375, 107.85546875, 111.75]}, "gradients/distilbert.transformer.layer.1.sa_layer_norm.weight": {"_type": "histogram", "values": [3.0, 2.0, 3.0, 0.0, 5.0, 5.0, 10.0, 4.0, 10.0, 19.0, 15.0, 19.0, 26.0, 33.0, 32.0, 49.0, 32.0, 55.0, 44.0, 56.0, 55.0, 59.0, 35.0, 25.0, 22.0, 36.0, 23.0, 16.0, 14.0, 7.0, 14.0, 5.0, 7.0, 8.0, 5.0, 2.0, 2.0, 0.0, 2.0, 3.0, 0.0, 0.0, 2.0, 0.0, 0.0, 0.0, 2.0, 1.0, 0.0, 0.0, 0.0, 0.0, 0.0, 0.0, 0.0, 0.0, 0.0, 0.0, 0.0, 0.0, 0.0, 0.0, 0.0, 1.0], "bins": [-86.27188873291016, -81.80230712890625, -77.33273315429688, -72.86315155029297, -68.39356994628906, -63.923988342285156, -59.454410552978516, -54.984832763671875, -50.51525115966797, -46.04566955566406, -41.57609176635742, -37.10651397705078, -32.636932373046875, -28.1673526763916, -23.697772979736328, -19.228193283081055, -14.758613586425781, -10.289033889770508, -5.819454193115234, -1.349874496459961, 3.1197052001953125, 7.589284896850586, 12.05886459350586, 16.528444290161133, 20.998023986816406, 25.46760368347168, 29.937183380126953, 34.406761169433594, 38.8763427734375, 43.345924377441406, 47.81550216674805, 52.28507995605469, 56.75465393066406, 61.22423553466797, 65.69381713867188, 70.16339111328125, 74.63297271728516, 79.10255432128906, 83.57212829589844, 88.04170989990234, 92.51129150390625, 96.98087310791016, 101.45045471191406, 105.92002868652344, 110.38961029052734, 114.85919189453125, 119.32876586914062, 123.79834747314453, 128.26792907714844, 132.7375030517578, 137.20709228515625, 141.67666625976562, 146.146240234375, 150.61582946777344, 155.0854034423828, 159.55499267578125, 164.02456665039062, 168.494140625, 172.96372985839844, 177.4333038330078, 181.90289306640625, 186.37246704101562, 190.842041015625, 195.31163024902344, 199.7812042236328]}, "gradients/distilbert.transformer.layer.1.sa_layer_norm.bias": {"_type": "histogram", "values": [2.0, 3.0, 1.0, 4.0, 7.0, 5.0, 2.0, 2.0, 5.0, 3.0, 7.0, 4.0, 10.0, 9.0, 18.0, 17.0, 13.0, 16.0, 17.0, 15.0, 11.0, 26.0, 13.0, 20.0, 21.0, 19.0, 28.0, 27.0, 28.0, 19.0, 34.0, 35.0, 37.0, 25.0, 37.0, 22.0, 25.0, 14.0, 20.0, 19.0, 9.0, 14.0, 15.0, 16.0, 7.0, 11.0, 7.0, 7.0, 4.0, 7.0, 4.0, 6.0, 7.0, 2.0, 6.0, 0.0, 1.0, 0.0, 2.0, 0.0, 1.0, 0.0, 1.0, 1.0], "bins": [-125.94049072265625, -121.69841766357422, -117.45634460449219, -113.21427917480469, -108.97220611572266, -104.73013305664062, -100.48806762695312, -96.2459945678711, -92.00392150878906, -87.76184844970703, -83.519775390625, -79.2777099609375, -75.03563690185547, -70.79356384277344, -66.55149841308594, -62.309425354003906, -58.067352294921875, -53.825279235839844, -49.58320999145508, -45.34114074707031, -41.09906768798828, -36.85699462890625, -32.614925384521484, -28.372854232788086, -24.130783081054688, -19.88871192932129, -15.64664077758789, -11.404569625854492, -7.162498474121094, -2.9204273223876953, 1.3216438293457031, 5.563714981079102, 9.8057861328125, 14.047857284545898, 18.289928436279297, 22.531999588012695, 26.774070739746094, 31.016141891479492, 35.25821304321289, 39.500282287597656, 43.74235534667969, 47.98442840576172, 52.226497650146484, 56.46856689453125, 60.71063995361328, 64.95271301269531, 69.19477844238281, 73.43685150146484, 77.67892456054688, 81.9209976196289, 86.16307067871094, 90.40513610839844, 94.64720916748047, 98.8892822265625, 103.13134765625, 107.37342071533203, 111.61549377441406, 115.8575668334961, 120.09963989257812, 124.34170532226562, 128.58377075195312, 132.8258514404297, 137.0679168701172, 141.30999755859375, 145.55206298828125]}, "gradients/distilbert.transformer.layer.1.attention.out_lin.weight": {"_type": "histogram", "values": [1.0, 0.0, 0.0, 0.0, 1.0, 3.0, 3.0, 3.0, 1.0, 5.0, 11.0, 13.0, 22.0, 20.0, 44.0, 50.0, 86.0, 125.0, 171.0, 256.0, 360.0, 526.0, 816.0, 1242.0, 1950.0, 3047.0, 4896.0, 7804.0, 12851.0, 21747.0, 35879.0, 59408.0, 93113.0, 113554.0, 88473.0, 56311.0, 34113.0, 20241.0, 12246.0, 7377.0, 4509.0, 2956.0, 1854.0, 1243.0, 784.0, 547.0, 356.0, 268.0, 154.0, 118.0, 95.0, 58.0, 47.0, 15.0, 15.0, 10.0, 6.0, 10.0, 2.0, 2.0, 1.0, 0.0, 1.0, 4.0], "bins": [-150.5, -146.0, -141.5, -137.0, -132.5, -128.0, -123.5, -119.0, -114.5, -110.0, -105.5, -101.0, -96.5, -92.0, -87.5, -83.0, -78.5, -74.0, -69.5, -65.0, -60.5, -56.0, -51.5, -47.0, -42.5, -38.0, -33.5, -29.0, -24.5, -20.0, -15.5, -11.0, -6.5, -2.0, 2.5, 7.0, 11.5, 16.0, 20.5, 25.0, 29.5, 34.0, 38.5, 43.0, 47.5, 52.0, 56.5, 61.0, 65.5, 70.0, 74.5, 79.0, 83.5, 88.0, 92.5, 97.0, 101.5, 106.0, 110.5, 115.0, 119.5, 124.0, 128.5, 133.0, 137.5]}, "gradients/distilbert.transformer.layer.1.attention.out_lin.bias": {"_type": "histogram", "values": [3.0, 0.0, 2.0, 4.0, 5.0, 5.0, 3.0, 5.0, 4.0, 2.0, 4.0, 4.0, 6.0, 9.0, 13.0, 10.0, 13.0, 17.0, 11.0, 24.0, 15.0, 12.0, 16.0, 21.0, 17.0, 19.0, 20.0, 26.0, 21.0, 36.0, 20.0, 32.0, 28.0, 44.0, 23.0, 32.0, 23.0, 22.0, 23.0, 17.0, 23.0, 12.0, 7.0, 14.0, 15.0, 10.0, 4.0, 9.0, 14.0, 5.0, 10.0, 6.0, 3.0, 5.0, 5.0, 4.0, 3.0, 2.0, 1.0, 1.0, 0.0, 0.0, 2.0, 2.0], "bins": [-108.0625, -104.5712890625, -101.080078125, -97.5888671875, -94.09765625, -90.6064453125, -87.115234375, -83.6240234375, -80.1328125, -76.6416015625, -73.150390625, -69.6591796875, -66.16796875, -62.6767578125, -59.185546875, -55.6943359375, -52.203125, -48.7119140625, -45.220703125, -41.7294921875, -38.23828125, -34.7470703125, -31.255859375, -27.7646484375, -24.2734375, -20.7822265625, -17.291015625, -13.7998046875, -10.30859375, -6.8173828125, -3.326171875, 0.1650390625, 3.65625, 7.1474609375, 10.638671875, 14.1298828125, 17.62109375, 21.1123046875, 24.603515625, 28.0947265625, 31.5859375, 35.0771484375, 38.568359375, 42.0595703125, 45.55078125, 49.0419921875, 52.533203125, 56.0244140625, 59.515625, 63.0068359375, 66.498046875, 69.9892578125, 73.48046875, 76.9716796875, 80.462890625, 83.9541015625, 87.4453125, 90.9365234375, 94.427734375, 97.9189453125, 101.41015625, 104.9013671875, 108.392578125, 111.8837890625, 115.375]}, "gradients/distilbert.transformer.layer.1.attention.v_lin.weight": {"_type": "histogram", "values": [3.0, 1.0, 0.0, 0.0, 0.0, 0.0, 1.0, 1.0, 2.0, 2.0, 0.0, 4.0, 8.0, 5.0, 8.0, 5.0, 10.0, 10.0, 15.0, 18.0, 18.0, 30.0, 30.0, 26.0, 60.0, 64.0, 84.0, 159.0, 716.0, 42431.0, 537530.0, 7722.0, 344.0, 118.0, 81.0, 65.0, 46.0, 39.0, 32.0, 29.0, 20.0, 10.0, 12.0, 11.0, 10.0, 8.0, 6.0, 7.0, 4.0, 4.0, 1.0, 1.0, 3.0, 3.0, 2.0, 0.0, 1.0, 2.0, 0.0, 0.0, 1.0, 0.0, 0.0, 1.0], "bins": [-1578.0, -1525.984375, -1473.96875, -1421.953125, -1369.9375, -1317.921875, -1265.90625, -1213.890625, -1161.875, -1109.859375, -1057.84375, -1005.828125, -953.8125, -901.796875, -849.78125, -797.765625, -745.75, -693.734375, -641.71875, -589.703125, -537.6875, -485.671875, -433.65625, -381.640625, -329.625, -277.609375, -225.59375, -173.578125, -121.5625, -69.546875, -17.53125, 34.484375, 86.5, 138.515625, 190.53125, 242.546875, 294.5625, 346.578125, 398.59375, 450.609375, 502.625, 554.640625, 606.65625, 658.671875, 710.6875, 762.703125, 814.71875, 866.734375, 918.75, 970.765625, 1022.78125, 1074.796875, 1126.8125, 1178.828125, 1230.84375, 1282.859375, 1334.875, 1386.890625, 1438.90625, 1490.921875, 1542.9375, 1594.953125, 1646.96875, 1698.984375, 1751.0]}, "gradients/distilbert.transformer.layer.1.attention.v_lin.bias": {"_type": "histogram", "values": [1.0, 0.0, 0.0, 1.0, 0.0, 0.0, 0.0, 0.0, 0.0, 0.0, 1.0, 0.0, 4.0, 2.0, 4.0, 1.0, 1.0, 6.0, 4.0, 5.0, 9.0, 12.0, 10.0, 12.0, 21.0, 25.0, 31.0, 38.0, 34.0, 21.0, 41.0, 33.0, 37.0, 54.0, 48.0, 50.0, 44.0, 30.0, 37.0, 22.0, 21.0, 21.0, 21.0, 10.0, 8.0, 11.0, 8.0, 5.0, 6.0, 5.0, 3.0, 2.0, 1.0, 0.0, 2.0, 0.0, 0.0, 2.0, 1.0, 0.0, 1.0, 0.0, 0.0, 1.0], "bins": [-223.75, -217.078125, -210.40625, -203.734375, -197.0625, -190.390625, -183.71875, -177.046875, -170.375, -163.703125, -157.03125, -150.359375, -143.6875, -137.015625, -130.34375, -123.671875, -117.0, -110.328125, -103.65625, -96.984375, -90.3125, -83.640625, -76.96875, -70.296875, -63.625, -56.953125, -50.28125, -43.609375, -36.9375, -30.265625, -23.59375, -16.921875, -10.25, -3.578125, 3.09375, 9.765625, 16.4375, 23.109375, 29.78125, 36.453125, 43.125, 49.796875, 56.46875, 63.140625, 69.8125, 76.484375, 83.15625, 89.828125, 96.5, 103.171875, 109.84375, 116.515625, 123.1875, 129.859375, 136.53125, 143.203125, 149.875, 156.546875, 163.21875, 169.890625, 176.5625, 183.234375, 189.90625, 196.578125, 203.25]}, "gradients/distilbert.transformer.layer.1.attention.k_lin.weight": {"_type": "histogram", "values": [1.0, 0.0, 0.0, 0.0, 0.0, 0.0, 0.0, 2.0, 0.0, 1.0, 0.0, 3.0, 4.0, 3.0, 5.0, 5.0, 12.0, 21.0, 27.0, 39.0, 59.0, 108.0, 171.0, 338.0, 605.0, 1109.0, 2242.0, 4818.0, 11589.0, 28068.0, 68513.0, 158892.0, 178095.0, 78305.0, 32717.0, 13164.0, 5653.0, 2575.0, 1196.0, 611.0, 354.0, 193.0, 125.0, 74.0, 42.0, 26.0, 16.0, 15.0, 8.0, 9.0, 2.0, 1.0, 2.0, 1.0, 1.0, 0.0, 2.0, 0.0, 0.0, 0.0, 0.0, 0.0, 1.0, 1.0], "bins": [-149.5, -144.83984375, -140.1796875, -135.51953125, -130.859375, -126.19921875, -121.5390625, -116.87890625, -112.21875, -107.55859375, -102.8984375, -98.23828125, -93.578125, -88.91796875, -84.2578125, -79.59765625, -74.9375, -70.27734375, -65.6171875, -60.95703125, -56.296875, -51.63671875, -46.9765625, -42.31640625, -37.65625, -32.99609375, -28.3359375, -23.67578125, -19.015625, -14.35546875, -9.6953125, -5.03515625, -0.375, 4.28515625, 8.9453125, 13.60546875, 18.265625, 22.92578125, 27.5859375, 32.24609375, 36.90625, 41.56640625, 46.2265625, 50.88671875, 55.546875, 60.20703125, 64.8671875, 69.52734375, 74.1875, 78.84765625, 83.5078125, 88.16796875, 92.828125, 97.48828125, 102.1484375, 106.80859375, 111.46875, 116.12890625, 120.7890625, 125.44921875, 130.109375, 134.76953125, 139.4296875, 144.08984375, 148.75]}, "gradients/distilbert.transformer.layer.1.attention.k_lin.bias": {"_type": "histogram", "values": [1.0, 0.0, 0.0, 1.0, 1.0, 0.0, 2.0, 2.0, 0.0, 0.0, 3.0, 1.0, 2.0, 0.0, 0.0, 6.0, 2.0, 6.0, 6.0, 14.0, 8.0, 15.0, 14.0, 20.0, 21.0, 22.0, 29.0, 40.0, 53.0, 52.0, 51.0, 50.0, 65.0, 44.0, 41.0, 41.0, 23.0, 16.0, 23.0, 20.0, 14.0, 8.0, 4.0, 12.0, 5.0, 7.0, 5.0, 2.0, 0.0, 3.0, 2.0, 2.0, 3.0, 1.0, 2.0, 0.0, 1.0, 0.0, 0.0, 0.0, 1.0, 0.0, 0.0, 1.0], "bins": [-0.0143280029296875, -0.013871192932128906, -0.013414382934570312, -0.012957572937011719, -0.012500762939453125, -0.012043952941894531, -0.011587142944335938, -0.011130332946777344, -0.01067352294921875, -0.010216712951660156, -0.009759902954101562, -0.009303092956542969, -0.008846282958984375, -0.008389472961425781, -0.007932662963867188, -0.007475852966308594, -0.00701904296875, -0.006562232971191406, -0.0061054229736328125, -0.005648612976074219, -0.005191802978515625, -0.004734992980957031, -0.0042781829833984375, -0.0038213729858398438, -0.00336456298828125, -0.0029077529907226562, -0.0024509429931640625, -0.0019941329956054688, -0.001537322998046875, -0.0010805130004882812, -0.0006237030029296875, -0.00016689300537109375, 0.0002899169921875, 0.0007467269897460938, 0.0012035369873046875, 0.0016603469848632812, 0.002117156982421875, 0.0025739669799804688, 0.0030307769775390625, 0.0034875869750976562, 0.00394439697265625, 0.004401206970214844, 0.0048580169677734375, 0.005314826965332031, 0.005771636962890625, 0.006228446960449219, 0.0066852569580078125, 0.007142066955566406, 0.007598876953125, 0.008055686950683594, 0.008512496948242188, 0.008969306945800781, 0.009426116943359375, 0.009882926940917969, 0.010339736938476562, 0.010796546936035156, 0.01125335693359375, 0.011710166931152344, 0.012166976928710938, 0.012623786926269531, 0.013080596923828125, 0.013537406921386719, 0.013994216918945312, 0.014451026916503906, 0.0149078369140625]}, "gradients/distilbert.transformer.layer.1.attention.q_lin.weight": {"_type": "histogram", "values": [1.0, 0.0, 0.0, 1.0, 0.0, 1.0, 0.0, 0.0, 0.0, 0.0, 1.0, 1.0, 0.0, 1.0, 3.0, 2.0, 0.0, 6.0, 5.0, 8.0, 12.0, 20.0, 13.0, 18.0, 35.0, 40.0, 75.0, 326.0, 2994.0, 46490.0, 428008.0, 104532.0, 6393.0, 567.0, 101.0, 47.0, 33.0, 25.0, 15.0, 8.0, 11.0, 6.0, 7.0, 5.0, 2.0, 2.0, 4.0, 0.0, 0.0, 1.0, 0.0, 0.0, 0.0, 1.0, 0.0, 0.0, 0.0, 0.0, 1.0, 0.0, 0.0, 1.0, 0.0, 1.0], "bins": [-442.25, -427.81640625, -413.3828125, -398.94921875, -384.515625, -370.08203125, -355.6484375, -341.21484375, -326.78125, -312.34765625, -297.9140625, -283.48046875, -269.046875, -254.61328125, -240.1796875, -225.74609375, -211.3125, -196.87890625, -182.4453125, -168.01171875, -153.578125, -139.14453125, -124.7109375, -110.27734375, -95.84375, -81.41015625, -66.9765625, -52.54296875, -38.109375, -23.67578125, -9.2421875, 5.19140625, 19.625, 34.05859375, 48.4921875, 62.92578125, 77.359375, 91.79296875, 106.2265625, 120.66015625, 135.09375, 149.52734375, 163.9609375, 178.39453125, 192.828125, 207.26171875, 221.6953125, 236.12890625, 250.5625, 264.99609375, 279.4296875, 293.86328125, 308.296875, 322.73046875, 337.1640625, 351.59765625, 366.03125, 380.46484375, 394.8984375, 409.33203125, 423.765625, 438.19921875, 452.6328125, 467.06640625, 481.5]}, "gradients/distilbert.transformer.layer.1.attention.q_lin.bias": {"_type": "histogram", "values": [1.0, 1.0, 0.0, 1.0, 1.0, 0.0, 0.0, 0.0, 1.0, 0.0, 1.0, 0.0, 0.0, 0.0, 1.0, 1.0, 8.0, 4.0, 5.0, 6.0, 15.0, 8.0, 14.0, 27.0, 23.0, 30.0, 15.0, 29.0, 29.0, 47.0, 45.0, 61.0, 56.0, 46.0, 42.0, 45.0, 38.0, 24.0, 22.0, 25.0, 12.0, 27.0, 10.0, 7.0, 6.0, 9.0, 6.0, 5.0, 4.0, 2.0, 1.0, 1.0, 1.0, 1.0, 0.0, 0.0, 0.0, 0.0, 1.0, 1.0, 0.0, 0.0, 1.0, 1.0], "bins": [-48.5625, -47.04052734375, -45.5185546875, -43.99658203125, -42.474609375, -40.95263671875, -39.4306640625, -37.90869140625, -36.38671875, -34.86474609375, -33.3427734375, -31.82080078125, -30.298828125, -28.77685546875, -27.2548828125, -25.73291015625, -24.2109375, -22.68896484375, -21.1669921875, -19.64501953125, -18.123046875, -16.60107421875, -15.0791015625, -13.55712890625, -12.03515625, -10.51318359375, -8.9912109375, -7.46923828125, -5.947265625, -4.42529296875, -2.9033203125, -1.38134765625, 0.140625, 1.66259765625, 3.1845703125, 4.70654296875, 6.228515625, 7.75048828125, 9.2724609375, 10.79443359375, 12.31640625, 13.83837890625, 15.3603515625, 16.88232421875, 18.404296875, 19.92626953125, 21.4482421875, 22.97021484375, 24.4921875, 26.01416015625, 27.5361328125, 29.05810546875, 30.580078125, 32.10205078125, 33.6240234375, 35.14599609375, 36.66796875, 38.18994140625, 39.7119140625, 41.23388671875, 42.755859375, 44.27783203125, 45.7998046875, 47.32177734375, 48.84375]}, "gradients/distilbert.transformer.layer.0.output_layer_norm.weight": {"_type": "histogram", "values": [3.0, 3.0, 3.0, 1.0, 4.0, 4.0, 6.0, 5.0, 8.0, 19.0, 22.0, 24.0, 29.0, 38.0, 41.0, 42.0, 48.0, 48.0, 68.0, 60.0, 31.0, 48.0, 40.0, 30.0, 24.0, 26.0, 18.0, 16.0, 15.0, 15.0, 7.0, 6.0, 3.0, 4.0, 2.0, 2.0, 0.0, 0.0, 0.0, 0.0, 0.0, 2.0, 0.0, 0.0, 0.0, 0.0, 0.0, 0.0, 0.0, 0.0, 0.0, 0.0, 0.0, 0.0, 0.0, 0.0, 0.0, 1.0, 0.0, 1.0, 0.0, 0.0, 0.0, 1.0], "bins": [-116.06562805175781, -109.80175018310547, -103.53787994384766, -97.27400207519531, -91.0101318359375, -84.74625396728516, -78.48237609863281, -72.218505859375, -65.95462799072266, -59.69075393676758, -53.4268798828125, -47.163002014160156, -40.89912796020508, -34.63525390625, -28.371376037597656, -22.107501983642578, -15.8436279296875, -9.579752922058105, -3.315877914428711, 2.947998046875, 9.211872100830078, 15.475746154785156, 21.7396240234375, 28.003498077392578, 34.267372131347656, 40.531246185302734, 46.79512023925781, 53.058998107910156, 59.322872161865234, 65.58674621582031, 71.85062408447266, 78.114501953125, 84.37838745117188, 90.64226531982422, 96.90613555908203, 103.17001342773438, 109.43388366699219, 115.69776153564453, 121.96163940429688, 128.2255096435547, 134.4893798828125, 140.7532501220703, 147.0171356201172, 153.281005859375, 159.5448760986328, 165.80874633789062, 172.0726318359375, 178.3365020751953, 184.6003875732422, 190.8642578125, 197.12814331054688, 203.3920135498047, 209.6558837890625, 215.91976928710938, 222.1836395263672, 228.447509765625, 234.71139526367188, 240.9752655029297, 247.23915100097656, 253.50302124023438, 259.76690673828125, 266.03076171875, 272.2946472167969, 278.55853271484375, 284.8223876953125]}, "gradients/distilbert.transformer.layer.0.output_layer_norm.bias": {"_type": "histogram", "values": [3.0, 1.0, 0.0, 0.0, 0.0, 0.0, 0.0, 1.0, 1.0, 4.0, 3.0, 2.0, 5.0, 6.0, 10.0, 10.0, 4.0, 13.0, 14.0, 15.0, 12.0, 21.0, 27.0, 28.0, 31.0, 39.0, 20.0, 39.0, 26.0, 41.0, 39.0, 38.0, 36.0, 30.0, 33.0, 20.0, 25.0, 19.0, 27.0, 14.0, 18.0, 15.0, 16.0, 11.0, 6.0, 13.0, 5.0, 3.0, 5.0, 4.0, 1.0, 3.0, 4.0, 3.0, 0.0, 1.0, 1.0, 0.0, 0.0, 1.0, 0.0, 0.0, 0.0, 1.0], "bins": [-245.60684204101562, -237.355712890625, -229.10458374023438, -220.8534698486328, -212.6023406982422, -204.35121154785156, -196.10009765625, -187.84896850585938, -179.59783935546875, -171.34671020507812, -163.0955810546875, -154.84446716308594, -146.5933380126953, -138.3422088623047, -130.09109497070312, -121.8399658203125, -113.58883666992188, -105.33770751953125, -97.08658599853516, -88.83546447753906, -80.58433532714844, -72.33320617675781, -64.08208465576172, -55.83095932006836, -47.579833984375, -39.32870864868164, -31.07758331298828, -22.826457977294922, -14.575332641601562, -6.324207305908203, 1.9269180297851562, 10.178043365478516, 18.42919921875, 26.68032455444336, 34.93144989013672, 43.18257522583008, 51.43370056152344, 59.6848258972168, 67.93595123291016, 76.18707275390625, 84.43820190429688, 92.6893310546875, 100.9404525756836, 109.19157409667969, 117.44270324707031, 125.69383239746094, 133.9449462890625, 142.19607543945312, 150.44720458984375, 158.69833374023438, 166.949462890625, 175.20057678222656, 183.4517059326172, 191.7028350830078, 199.95394897460938, 208.205078125, 216.45620727539062, 224.70733642578125, 232.95846557617188, 241.20957946777344, 249.46070861816406, 257.7118225097656, 265.96295166015625, 274.2140808105469, 282.4652099609375]}, "gradients/distilbert.transformer.layer.0.ffn.lin2.weight": {"_type": "histogram", "values": [2.0, 0.0, 2.0, 1.0, 0.0, 1.0, 3.0, 1.0, 2.0, 3.0, 3.0, 2.0, 4.0, 7.0, 11.0, 17.0, 9.0, 13.0, 21.0, 16.0, 27.0, 42.0, 68.0, 112.0, 204.0, 407.0, 968.0, 2433.0, 7110.0, 28406.0, 254041.0, 1709477.0, 310290.0, 32979.0, 7872.0, 2688.0, 998.0, 421.0, 222.0, 116.0, 94.0, 42.0, 40.0, 16.0, 22.0, 16.0, 16.0, 11.0, 5.0, 4.0, 5.0, 4.0, 4.0, 6.0, 3.0, 0.0, 3.0, 1.0, 2.0, 1.0, 0.0, 1.0, 0.0, 1.0], "bins": [-401.25, -388.52734375, -375.8046875, -363.08203125, -350.359375, -337.63671875, -324.9140625, -312.19140625, -299.46875, -286.74609375, -274.0234375, -261.30078125, -248.578125, -235.85546875, -223.1328125, -210.41015625, -197.6875, -184.96484375, -172.2421875, -159.51953125, -146.796875, -134.07421875, -121.3515625, -108.62890625, -95.90625, -83.18359375, -70.4609375, -57.73828125, -45.015625, -32.29296875, -19.5703125, -6.84765625, 5.875, 18.59765625, 31.3203125, 44.04296875, 56.765625, 69.48828125, 82.2109375, 94.93359375, 107.65625, 120.37890625, 133.1015625, 145.82421875, 158.546875, 171.26953125, 183.9921875, 196.71484375, 209.4375, 222.16015625, 234.8828125, 247.60546875, 260.328125, 273.05078125, 285.7734375, 298.49609375, 311.21875, 323.94140625, 336.6640625, 349.38671875, 362.109375, 374.83203125, 387.5546875, 400.27734375, 413.0]}, "gradients/distilbert.transformer.layer.0.ffn.lin2.bias": {"_type": "histogram", "values": [1.0, 0.0, 0.0, 1.0, 1.0, 0.0, 1.0, 1.0, 0.0, 0.0, 2.0, 1.0, 1.0, 4.0, 3.0, 3.0, 0.0, 3.0, 7.0, 7.0, 20.0, 13.0, 13.0, 16.0, 12.0, 20.0, 18.0, 26.0, 30.0, 26.0, 32.0, 39.0, 28.0, 30.0, 37.0, 34.0, 31.0, 28.0, 28.0, 27.0, 24.0, 22.0, 29.0, 17.0, 21.0, 14.0, 15.0, 13.0, 16.0, 7.0, 4.0, 10.0, 8.0, 4.0, 4.0, 3.0, 2.0, 4.0, 1.0, 1.0, 1.0, 1.0, 0.0, 3.0], "bins": [-169.625, -164.75, -159.875, -155.0, -150.125, -145.25, -140.375, -135.5, -130.625, -125.75, -120.875, -116.0, -111.125, -106.25, -101.375, -96.5, -91.625, -86.75, -81.875, -77.0, -72.125, -67.25, -62.375, -57.5, -52.625, -47.75, -42.875, -38.0, -33.125, -28.25, -23.375, -18.5, -13.625, -8.75, -3.875, 1.0, 5.875, 10.75, 15.625, 20.5, 25.375, 30.25, 35.125, 40.0, 44.875, 49.75, 54.625, 59.5, 64.375, 69.25, 74.125, 79.0, 83.875, 88.75, 93.625, 98.5, 103.375, 108.25, 113.125, 118.0, 122.875, 127.75, 132.625, 137.5, 142.375]}, "gradients/distilbert.transformer.layer.0.ffn.lin1.weight": {"_type": "histogram", "values": [1.0, 0.0, 0.0, 0.0, 0.0, 0.0, 0.0, 0.0, 2.0, 1.0, 1.0, 0.0, 0.0, 3.0, 1.0, 4.0, 2.0, 2.0, 8.0, 6.0, 10.0, 7.0, 9.0, 13.0, 19.0, 36.0, 45.0, 91.0, 105.0, 249.0, 788.0, 10005.0, 2065730.0, 277972.0, 3222.0, 470.0, 194.0, 106.0, 68.0, 39.0, 25.0, 13.0, 10.0, 12.0, 8.0, 4.0, 7.0, 3.0, 1.0, 2.0, 0.0, 0.0, 0.0, 0.0, 0.0, 0.0, 0.0, 0.0, 0.0, 0.0, 1.0, 0.0, 0.0, 1.0], "bins": [-1749.0, -1695.71875, -1642.4375, -1589.15625, -1535.875, -1482.59375, -1429.3125, -1376.03125, -1322.75, -1269.46875, -1216.1875, -1162.90625, -1109.625, -1056.34375, -1003.0625, -949.78125, -896.5, -843.21875, -789.9375, -736.65625, -683.375, -630.09375, -576.8125, -523.53125, -470.25, -416.96875, -363.6875, -310.40625, -257.125, -203.84375, -150.5625, -97.28125, -44.0, 9.28125, 62.5625, 115.84375, 169.125, 222.40625, 275.6875, 328.96875, 382.25, 435.53125, 488.8125, 542.09375, 595.375, 648.65625, 701.9375, 755.21875, 808.5, 861.78125, 915.0625, 968.34375, 1021.625, 1074.90625, 1128.1875, 1181.46875, 1234.75, 1288.03125, 1341.3125, 1394.59375, 1447.875, 1501.15625, 1554.4375, 1607.71875, 1661.0]}, "gradients/distilbert.transformer.layer.0.ffn.lin1.bias": {"_type": "histogram", "values": [1.0, 1.0, 0.0, 0.0, 1.0, 1.0, 1.0, 0.0, 0.0, 0.0, 1.0, 7.0, 3.0, 9.0, 2.0, 7.0, 6.0, 12.0, 22.0, 21.0, 47.0, 46.0, 71.0, 98.0, 146.0, 213.0, 336.0, 424.0, 457.0, 365.0, 237.0, 189.0, 98.0, 61.0, 55.0, 29.0, 19.0, 16.0, 15.0, 11.0, 9.0, 8.0, 3.0, 5.0, 3.0, 1.0, 3.0, 1.0, 1.0, 4.0, 0.0, 0.0, 3.0, 1.0, 1.0, 0.0, 0.0, 0.0, 0.0, 0.0, 0.0, 0.0, 0.0, 1.0], "bins": [-85.75, -82.6953125, -79.640625, -76.5859375, -73.53125, -70.4765625, -67.421875, -64.3671875, -61.3125, -58.2578125, -55.203125, -52.1484375, -49.09375, -46.0390625, -42.984375, -39.9296875, -36.875, -33.8203125, -30.765625, -27.7109375, -24.65625, -21.6015625, -18.546875, -15.4921875, -12.4375, -9.3828125, -6.328125, -3.2734375, -0.21875, 2.8359375, 5.890625, 8.9453125, 12.0, 15.0546875, 18.109375, 21.1640625, 24.21875, 27.2734375, 30.328125, 33.3828125, 36.4375, 39.4921875, 42.546875, 45.6015625, 48.65625, 51.7109375, 54.765625, 57.8203125, 60.875, 63.9296875, 66.984375, 70.0390625, 73.09375, 76.1484375, 79.203125, 82.2578125, 85.3125, 88.3671875, 91.421875, 94.4765625, 97.53125, 100.5859375, 103.640625, 106.6953125, 109.75]}, "gradients/distilbert.transformer.layer.0.sa_layer_norm.weight": {"_type": "histogram", "values": [1.0, 1.0, 0.0, 0.0, 0.0, 1.0, 1.0, 0.0, 0.0, 1.0, 0.0, 0.0, 1.0, 3.0, 4.0, 2.0, 4.0, 4.0, 6.0, 11.0, 9.0, 10.0, 12.0, 18.0, 16.0, 21.0, 28.0, 45.0, 36.0, 39.0, 48.0, 40.0, 40.0, 43.0, 33.0, 44.0, 31.0, 32.0, 35.0, 22.0, 15.0, 17.0, 17.0, 14.0, 8.0, 8.0, 12.0, 2.0, 5.0, 5.0, 5.0, 2.0, 3.0, 2.0, 1.0, 3.0, 2.0, 2.0, 0.0, 2.0, 0.0, 0.0, 0.0, 1.0], "bins": [-150.7464141845703, -146.18026733398438, -141.61410522460938, -137.04794311523438, -132.48179626464844, -127.91564178466797, -123.3494873046875, -118.78333282470703, -114.21717834472656, -109.6510238647461, -105.08486938476562, -100.51871490478516, -95.95256042480469, -91.38640594482422, -86.82025146484375, -82.25409698486328, -77.68794250488281, -73.12178802490234, -68.55563354492188, -63.989479064941406, -59.42332458496094, -54.85717010498047, -50.291015625, -45.72486114501953, -41.15870666503906, -36.592552185058594, -32.026397705078125, -27.460243225097656, -22.894088745117188, -18.32793426513672, -13.76177978515625, -9.195625305175781, -4.629486083984375, -0.06333160400390625, 4.5028228759765625, 9.068977355957031, 13.6351318359375, 18.20128631591797, 22.767440795898438, 27.333595275878906, 31.899749755859375, 36.465904235839844, 41.03205871582031, 45.59821319580078, 50.16436767578125, 54.73052215576172, 59.29667663574219, 63.862831115722656, 68.42898559570312, 72.9951400756836, 77.56129455566406, 82.12744903564453, 86.693603515625, 91.25975799560547, 95.82591247558594, 100.3920669555664, 104.95822143554688, 109.52437591552734, 114.09053039550781, 118.65668487548828, 123.22283935546875, 127.78899383544922, 132.3551483154297, 136.92129516601562, 141.48745727539062]}, "gradients/distilbert.transformer.layer.0.sa_layer_norm.bias": {"_type": "histogram", "values": [1.0, 0.0, 1.0, 0.0, 0.0, 1.0, 1.0, 0.0, 3.0, 1.0, 2.0, 3.0, 0.0, 4.0, 5.0, 5.0, 17.0, 17.0, 11.0, 14.0, 19.0, 21.0, 18.0, 17.0, 20.0, 34.0, 37.0, 32.0, 35.0, 26.0, 36.0, 35.0, 25.0, 42.0, 32.0, 19.0, 28.0, 25.0, 19.0, 17.0, 20.0, 16.0, 22.0, 19.0, 16.0, 11.0, 8.0, 7.0, 6.0, 4.0, 5.0, 2.0, 1.0, 2.0, 2.0, 0.0, 1.0, 1.0, 1.0, 0.0, 0.0, 0.0, 0.0, 1.0], "bins": [-183.04034423828125, -177.20150756835938, -171.36265563964844, -165.52381896972656, -159.68496704101562, -153.84613037109375, -148.00729370117188, -142.16845703125, -136.32960510253906, -130.4907684326172, -124.65191650390625, -118.81307983398438, -112.97423553466797, -107.13539123535156, -101.29655456542969, -95.45771026611328, -89.61886596679688, -83.78002166748047, -77.94117736816406, -72.10234069824219, -66.26349639892578, -60.424652099609375, -54.585811614990234, -48.746971130371094, -42.90812683105469, -37.06928253173828, -31.23044204711914, -25.391599655151367, -19.552757263183594, -13.71391487121582, -7.875072479248047, -2.0362319946289062, 3.8025970458984375, 9.641439437866211, 15.480281829833984, 21.319124221801758, 27.15796661376953, 32.99681091308594, 38.83565139770508, 44.67449188232422, 50.513336181640625, 56.35218048095703, 62.19102096557617, 68.02986145019531, 73.86870574951172, 79.70755004882812, 85.54638671875, 91.3852310180664, 97.22407531738281, 103.06291961669922, 108.90176391601562, 114.7406005859375, 120.5794448852539, 126.41828918457031, 132.2571258544922, 138.09597778320312, 143.934814453125, 149.77365112304688, 155.6125030517578, 161.4513397216797, 167.29019165039062, 173.1290283203125, 178.96786499023438, 184.80670166015625, 190.6455535888672]}, "gradients/distilbert.transformer.layer.0.attention.out_lin.weight": {"_type": "histogram", "values": [1.0, 0.0, 0.0, 0.0, 0.0, 1.0, 0.0, 3.0, 1.0, 3.0, 0.0, 9.0, 20.0, 16.0, 35.0, 39.0, 72.0, 98.0, 181.0, 205.0, 320.0, 495.0, 781.0, 1277.0, 1851.0, 2883.0, 4693.0, 7638.0, 12708.0, 22193.0, 39712.0, 70538.0, 107384.0, 115795.0, 84270.0, 49178.0, 27438.0, 15553.0, 9090.0, 5504.0, 3499.0, 2210.0, 1440.0, 926.0, 567.0, 418.0, 270.0, 171.0, 122.0, 81.0, 41.0, 29.0, 22.0, 19.0, 7.0, 5.0, 6.0, 1.0, 1.0, 2.0, 1.0, 0.0, 0.0, 1.0], "bins": [-216.0, -209.490234375, -202.98046875, -196.470703125, -189.9609375, -183.451171875, -176.94140625, -170.431640625, -163.921875, -157.412109375, -150.90234375, -144.392578125, -137.8828125, -131.373046875, -124.86328125, -118.353515625, -111.84375, -105.333984375, -98.82421875, -92.314453125, -85.8046875, -79.294921875, -72.78515625, -66.275390625, -59.765625, -53.255859375, -46.74609375, -40.236328125, -33.7265625, -27.216796875, -20.70703125, -14.197265625, -7.6875, -1.177734375, 5.33203125, 11.841796875, 18.3515625, 24.861328125, 31.37109375, 37.880859375, 44.390625, 50.900390625, 57.41015625, 63.919921875, 70.4296875, 76.939453125, 83.44921875, 89.958984375, 96.46875, 102.978515625, 109.48828125, 115.998046875, 122.5078125, 129.017578125, 135.52734375, 142.037109375, 148.546875, 155.056640625, 161.56640625, 168.076171875, 174.5859375, 181.095703125, 187.60546875, 194.115234375, 200.625]}, "gradients/distilbert.transformer.layer.0.attention.out_lin.bias": {"_type": "histogram", "values": [1.0, 0.0, 0.0, 0.0, 1.0, 4.0, 0.0, 0.0, 2.0, 1.0, 1.0, 5.0, 3.0, 10.0, 4.0, 15.0, 15.0, 15.0, 24.0, 15.0, 18.0, 19.0, 22.0, 25.0, 38.0, 35.0, 40.0, 32.0, 36.0, 33.0, 44.0, 36.0, 24.0, 26.0, 34.0, 21.0, 19.0, 15.0, 16.0, 24.0, 14.0, 21.0, 15.0, 12.0, 8.0, 4.0, 5.0, 3.0, 4.0, 3.0, 0.0, 2.0, 0.0, 1.0, 2.0, 0.0, 0.0, 0.0, 0.0, 0.0, 0.0, 0.0, 0.0, 1.0], "bins": [-146.25, -141.259765625, -136.26953125, -131.279296875, -126.2890625, -121.298828125, -116.30859375, -111.318359375, -106.328125, -101.337890625, -96.34765625, -91.357421875, -86.3671875, -81.376953125, -76.38671875, -71.396484375, -66.40625, -61.416015625, -56.42578125, -51.435546875, -46.4453125, -41.455078125, -36.46484375, -31.474609375, -26.484375, -21.494140625, -16.50390625, -11.513671875, -6.5234375, -1.533203125, 3.45703125, 8.447265625, 13.4375, 18.427734375, 23.41796875, 28.408203125, 33.3984375, 38.388671875, 43.37890625, 48.369140625, 53.359375, 58.349609375, 63.33984375, 68.330078125, 73.3203125, 78.310546875, 83.30078125, 88.291015625, 93.28125, 98.271484375, 103.26171875, 108.251953125, 113.2421875, 118.232421875, 123.22265625, 128.212890625, 133.203125, 138.193359375, 143.18359375, 148.173828125, 153.1640625, 158.154296875, 163.14453125, 168.134765625, 173.125]}, "gradients/distilbert.transformer.layer.0.attention.v_lin.weight": {"_type": "histogram", "values": [2.0, 0.0, 0.0, 1.0, 0.0, 1.0, 3.0, 0.0, 0.0, 4.0, 1.0, 0.0, 1.0, 1.0, 1.0, 5.0, 0.0, 5.0, 4.0, 15.0, 5.0, 24.0, 26.0, 46.0, 59.0, 117.0, 242.0, 532.0, 1270.0, 3305.0, 8979.0, 24595.0, 64881.0, 147503.0, 179985.0, 97462.0, 37905.0, 13965.0, 5296.0, 2048.0, 773.0, 328.0, 144.0, 79.0, 57.0, 31.0, 27.0, 24.0, 16.0, 12.0, 12.0, 3.0, 5.0, 2.0, 6.0, 2.0, 3.0, 4.0, 3.0, 2.0, 0.0, 0.0, 1.0, 1.0], "bins": [-304.25, -295.359375, -286.46875, -277.578125, -268.6875, -259.796875, -250.90625, -242.015625, -233.125, -224.234375, -215.34375, -206.453125, -197.5625, -188.671875, -179.78125, -170.890625, -162.0, -153.109375, -144.21875, -135.328125, -126.4375, -117.546875, -108.65625, -99.765625, -90.875, -81.984375, -73.09375, -64.203125, -55.3125, -46.421875, -37.53125, -28.640625, -19.75, -10.859375, -1.96875, 6.921875, 15.8125, 24.703125, 33.59375, 42.484375, 51.375, 60.265625, 69.15625, 78.046875, 86.9375, 95.828125, 104.71875, 113.609375, 122.5, 131.390625, 140.28125, 149.171875, 158.0625, 166.953125, 175.84375, 184.734375, 193.625, 202.515625, 211.40625, 220.296875, 229.1875, 238.078125, 246.96875, 255.859375, 264.75]}, "gradients/distilbert.transformer.layer.0.attention.v_lin.bias": {"_type": "histogram", "values": [1.0, 0.0, 0.0, 1.0, 1.0, 0.0, 2.0, 0.0, 1.0, 1.0, 0.0, 3.0, 2.0, 2.0, 6.0, 3.0, 2.0, 7.0, 8.0, 4.0, 5.0, 12.0, 16.0, 18.0, 13.0, 24.0, 28.0, 33.0, 32.0, 34.0, 45.0, 36.0, 45.0, 35.0, 39.0, 50.0, 22.0, 27.0, 28.0, 28.0, 21.0, 18.0, 14.0, 12.0, 7.0, 15.0, 13.0, 9.0, 7.0, 12.0, 5.0, 4.0, 1.0, 5.0, 4.0, 2.0, 1.0, 0.0, 2.0, 0.0, 0.0, 1.0, 0.0, 1.0], "bins": [-167.5, -162.478515625, -157.45703125, -152.435546875, -147.4140625, -142.392578125, -137.37109375, -132.349609375, -127.328125, -122.306640625, -117.28515625, -112.263671875, -107.2421875, -102.220703125, -97.19921875, -92.177734375, -87.15625, -82.134765625, -77.11328125, -72.091796875, -67.0703125, -62.048828125, -57.02734375, -52.005859375, -46.984375, -41.962890625, -36.94140625, -31.919921875, -26.8984375, -21.876953125, -16.85546875, -11.833984375, -6.8125, -1.791015625, 3.23046875, 8.251953125, 13.2734375, 18.294921875, 23.31640625, 28.337890625, 33.359375, 38.380859375, 43.40234375, 48.423828125, 53.4453125, 58.466796875, 63.48828125, 68.509765625, 73.53125, 78.552734375, 83.57421875, 88.595703125, 93.6171875, 98.638671875, 103.66015625, 108.681640625, 113.703125, 118.724609375, 123.74609375, 128.767578125, 133.7890625, 138.810546875, 143.83203125, 148.853515625, 153.875]}, "gradients/distilbert.transformer.layer.0.attention.k_lin.weight": {"_type": "histogram", "values": [3.0, 1.0, 1.0, 3.0, 2.0, 0.0, 2.0, 7.0, 6.0, 9.0, 6.0, 20.0, 17.0, 21.0, 38.0, 66.0, 65.0, 113.0, 165.0, 214.0, 331.0, 517.0, 832.0, 1446.0, 2478.0, 4073.0, 7435.0, 13137.0, 23749.0, 44410.0, 79979.0, 123424.0, 119417.0, 75558.0, 41344.0, 22285.0, 12007.0, 6906.0, 3941.0, 2216.0, 1354.0, 764.0, 477.0, 309.0, 214.0, 124.0, 84.0, 74.0, 61.0, 24.0, 27.0, 19.0, 8.0, 11.0, 11.0, 5.0, 2.0, 3.0, 3.0, 1.0, 2.0, 1.0, 1.0, 1.0], "bins": [-95.625, -92.6318359375, -89.638671875, -86.6455078125, -83.65234375, -80.6591796875, -77.666015625, -74.6728515625, -71.6796875, -68.6865234375, -65.693359375, -62.7001953125, -59.70703125, -56.7138671875, -53.720703125, -50.7275390625, -47.734375, -44.7412109375, -41.748046875, -38.7548828125, -35.76171875, -32.7685546875, -29.775390625, -26.7822265625, -23.7890625, -20.7958984375, -17.802734375, -14.8095703125, -11.81640625, -8.8232421875, -5.830078125, -2.8369140625, 0.15625, 3.1494140625, 6.142578125, 9.1357421875, 12.12890625, 15.1220703125, 18.115234375, 21.1083984375, 24.1015625, 27.0947265625, 30.087890625, 33.0810546875, 36.07421875, 39.0673828125, 42.060546875, 45.0537109375, 48.046875, 51.0400390625, 54.033203125, 57.0263671875, 60.01953125, 63.0126953125, 66.005859375, 68.9990234375, 71.9921875, 74.9853515625, 77.978515625, 80.9716796875, 83.96484375, 86.9580078125, 89.951171875, 92.9443359375, 95.9375]}, "gradients/distilbert.transformer.layer.0.attention.k_lin.bias": {"_type": "histogram", "values": [1.0, 0.0, 0.0, 0.0, 0.0, 0.0, 0.0, 0.0, 1.0, 0.0, 1.0, 3.0, 4.0, 1.0, 2.0, 2.0, 1.0, 2.0, 8.0, 7.0, 6.0, 16.0, 19.0, 19.0, 22.0, 33.0, 34.0, 40.0, 49.0, 78.0, 62.0, 51.0, 46.0, 59.0, 41.0, 34.0, 22.0, 19.0, 11.0, 11.0, 14.0, 6.0, 6.0, 12.0, 5.0, 3.0, 1.0, 1.0, 3.0, 2.0, 2.0, 1.0, 0.0, 0.0, 3.0, 1.0, 0.0, 1.0, 0.0, 0.0, 0.0, 0.0, 0.0, 2.0], "bins": [-0.01375579833984375, -0.013304948806762695, -0.01285409927368164, -0.012403249740600586, -0.011952400207519531, -0.011501550674438477, -0.011050701141357422, -0.010599851608276367, -0.010149002075195312, -0.009698152542114258, -0.009247303009033203, -0.008796453475952148, -0.008345603942871094, -0.007894754409790039, -0.007443904876708984, -0.00699305534362793, -0.006542205810546875, -0.00609135627746582, -0.005640506744384766, -0.005189657211303711, -0.004738807678222656, -0.0042879581451416016, -0.003837108612060547, -0.003386259078979492, -0.0029354095458984375, -0.002484560012817383, -0.002033710479736328, -0.0015828609466552734, -0.0011320114135742188, -0.0006811618804931641, -0.00023031234741210938, 0.0002205371856689453, 0.00067138671875, 0.0011222362518310547, 0.0015730857849121094, 0.002023935317993164, 0.0024747848510742188, 0.0029256343841552734, 0.003376483917236328, 0.003827333450317383, 0.0042781829833984375, 0.004729032516479492, 0.005179882049560547, 0.0056307315826416016, 0.006081581115722656, 0.006532430648803711, 0.006983280181884766, 0.00743412971496582, 0.007884979248046875, 0.00833582878112793, 0.008786678314208984, 0.009237527847290039, 0.009688377380371094, 0.010139226913452148, 0.010590076446533203, 0.011040925979614258, 0.011491775512695312, 0.011942625045776367, 0.012393474578857422, 0.012844324111938477, 0.013295173645019531, 0.013746023178100586, 0.01419687271118164, 0.014647722244262695, 0.01509857177734375]}, "gradients/distilbert.transformer.layer.0.attention.q_lin.weight": {"_type": "histogram", "values": [1.0, 0.0, 1.0, 0.0, 0.0, 1.0, 3.0, 5.0, 3.0, 4.0, 13.0, 11.0, 22.0, 37.0, 50.0, 61.0, 119.0, 173.0, 256.0, 397.0, 664.0, 959.0, 1588.0, 2731.0, 4430.0, 7308.0, 12024.0, 19870.0, 32113.0, 50751.0, 75742.0, 97398.0, 93910.0, 69368.0, 45615.0, 28772.0, 17650.0, 10839.0, 6647.0, 3964.0, 2364.0, 1437.0, 922.0, 599.0, 356.0, 221.0, 153.0, 96.0, 62.0, 39.0, 20.0, 19.0, 11.0, 9.0, 4.0, 1.0, 5.0, 3.0, 0.0, 0.0, 0.0, 2.0, 0.0, 1.0], "bins": [-79.5625, -77.0673828125, -74.572265625, -72.0771484375, -69.58203125, -67.0869140625, -64.591796875, -62.0966796875, -59.6015625, -57.1064453125, -54.611328125, -52.1162109375, -49.62109375, -47.1259765625, -44.630859375, -42.1357421875, -39.640625, -37.1455078125, -34.650390625, -32.1552734375, -29.66015625, -27.1650390625, -24.669921875, -22.1748046875, -19.6796875, -17.1845703125, -14.689453125, -12.1943359375, -9.69921875, -7.2041015625, -4.708984375, -2.2138671875, 0.28125, 2.7763671875, 5.271484375, 7.7666015625, 10.26171875, 12.7568359375, 15.251953125, 17.7470703125, 20.2421875, 22.7373046875, 25.232421875, 27.7275390625, 30.22265625, 32.7177734375, 35.212890625, 37.7080078125, 40.203125, 42.6982421875, 45.193359375, 47.6884765625, 50.18359375, 52.6787109375, 55.173828125, 57.6689453125, 60.1640625, 62.6591796875, 65.154296875, 67.6494140625, 70.14453125, 72.6396484375, 75.134765625, 77.6298828125, 80.125]}, "gradients/distilbert.transformer.layer.0.attention.q_lin.bias": {"_type": "histogram", "values": [1.0, 0.0, 0.0, 0.0, 0.0, 0.0, 0.0, 1.0, 0.0, 0.0, 0.0, 0.0, 0.0, 0.0, 0.0, 0.0, 2.0, 2.0, 2.0, 2.0, 3.0, 1.0, 5.0, 7.0, 7.0, 13.0, 13.0, 21.0, 28.0, 29.0, 44.0, 42.0, 53.0, 66.0, 60.0, 70.0, 55.0, 70.0, 35.0, 32.0, 31.0, 20.0, 13.0, 12.0, 6.0, 8.0, 4.0, 3.0, 2.0, 3.0, 1.0, 0.0, 0.0, 0.0, 0.0, 0.0, 0.0, 0.0, 0.0, 0.0, 0.0, 0.0, 0.0, 1.0], "bins": [-76.8125, -74.5849609375, -72.357421875, -70.1298828125, -67.90234375, -65.6748046875, -63.447265625, -61.2197265625, -58.9921875, -56.7646484375, -54.537109375, -52.3095703125, -50.08203125, -47.8544921875, -45.626953125, -43.3994140625, -41.171875, -38.9443359375, -36.716796875, -34.4892578125, -32.26171875, -30.0341796875, -27.806640625, -25.5791015625, -23.3515625, -21.1240234375, -18.896484375, -16.6689453125, -14.44140625, -12.2138671875, -9.986328125, -7.7587890625, -5.53125, -3.3037109375, -1.076171875, 1.1513671875, 3.37890625, 5.6064453125, 7.833984375, 10.0615234375, 12.2890625, 14.5166015625, 16.744140625, 18.9716796875, 21.19921875, 23.4267578125, 25.654296875, 27.8818359375, 30.109375, 32.3369140625, 34.564453125, 36.7919921875, 39.01953125, 41.2470703125, 43.474609375, 45.7021484375, 47.9296875, 50.1572265625, 52.384765625, 54.6123046875, 56.83984375, 59.0673828125, 61.294921875, 63.5224609375, 65.75]}, "gradients/distilbert.embeddings.LayerNorm.weight": {"_type": "histogram", "values": [1.0, 0.0, 0.0, 0.0, 0.0, 0.0, 1.0, 1.0, 2.0, 2.0, 5.0, 5.0, 3.0, 9.0, 11.0, 16.0, 30.0, 20.0, 36.0, 45.0, 58.0, 72.0, 79.0, 76.0, 60.0, 53.0, 39.0, 47.0, 28.0, 22.0, 13.0, 8.0, 7.0, 7.0, 5.0, 1.0, 1.0, 1.0, 1.0, 0.0, 0.0, 0.0, 0.0, 0.0, 0.0, 0.0, 0.0, 0.0, 0.0, 0.0, 0.0, 0.0, 0.0, 0.0, 0.0, 1.0, 1.0, 0.0, 0.0, 0.0, 0.0, 0.0, 0.0, 1.0], "bins": [-216.80050659179688, -207.19760131835938, -197.59471130371094, -187.9918212890625, -178.388916015625, -168.7860107421875, -159.18312072753906, -149.58023071289062, -139.97732543945312, -130.37442016601562, -120.77153015136719, -111.16863250732422, -101.56573486328125, -91.96283721923828, -82.35993957519531, -72.75704193115234, -63.154144287109375, -53.551246643066406, -43.94834899902344, -34.34545135498047, -24.7425537109375, -15.139656066894531, -5.5367584228515625, 4.066139221191406, 13.669036865234375, 23.271934509277344, 32.87483215332031, 42.47772979736328, 52.08062744140625, 61.68352508544922, 71.28642272949219, 80.88932037353516, 90.49224853515625, 100.09514617919922, 109.69804382324219, 119.30094146728516, 128.90383911132812, 138.50674438476562, 148.10963439941406, 157.7125244140625, 167.3154296875, 176.9183349609375, 186.52122497558594, 196.12411499023438, 205.72702026367188, 215.32992553710938, 224.9328155517578, 234.53570556640625, 244.13861083984375, 253.74151611328125, 263.34442138671875, 272.9472961425781, 282.5502014160156, 292.1531066894531, 301.7559814453125, 311.35888671875, 320.9617919921875, 330.564697265625, 340.1676025390625, 349.7704772949219, 359.3733825683594, 368.9762878417969, 378.57916259765625, 388.18206787109375, 397.78497314453125]}, "gradients/distilbert.embeddings.LayerNorm.bias": {"_type": "histogram", "values": [1.0, 0.0, 0.0, 0.0, 1.0, 2.0, 1.0, 1.0, 3.0, 1.0, 1.0, 7.0, 5.0, 11.0, 9.0, 8.0, 16.0, 13.0, 12.0, 18.0, 22.0, 27.0, 26.0, 34.0, 26.0, 34.0, 37.0, 39.0, 27.0, 25.0, 38.0, 35.0, 35.0, 23.0, 21.0, 21.0, 27.0, 19.0, 23.0, 17.0, 10.0, 18.0, 15.0, 13.0, 11.0, 4.0, 7.0, 5.0, 7.0, 2.0, 0.0, 4.0, 2.0, 0.0, 1.0, 0.0, 0.0, 0.0, 2.0, 0.0, 0.0, 0.0, 0.0, 1.0], "bins": [-300.4698486328125, -290.21087646484375, -279.9518737792969, -269.6929016113281, -259.43389892578125, -249.1749267578125, -238.9159393310547, -228.65695190429688, -218.39796447753906, -208.13897705078125, -197.87998962402344, -187.62100219726562, -177.36203002929688, -167.10302734375, -156.84405517578125, -146.58506774902344, -136.32608032226562, -126.06709289550781, -115.80810546875, -105.54912567138672, -95.2901382446289, -85.0311508178711, -74.77217102050781, -64.51318359375, -54.25419616699219, -43.995208740234375, -33.73622512817383, -23.47723960876465, -13.218254089355469, -2.9592666625976562, 7.299716949462891, 17.558700561523438, 27.817718505859375, 38.07670593261719, 48.335689544677734, 58.59467315673828, 68.8536605834961, 79.1126480102539, 89.37162780761719, 99.630615234375, 109.88960266113281, 120.14859008789062, 130.40757751464844, 140.66656494140625, 150.925537109375, 161.18453979492188, 171.44351196289062, 181.70249938964844, 191.96148681640625, 202.22047424316406, 212.47946166992188, 222.7384490966797, 232.9974365234375, 243.25640869140625, 253.51539611816406, 263.7743835449219, 274.03338623046875, 284.2923583984375, 294.5513610839844, 304.8103332519531, 315.0693359375, 325.32830810546875, 335.5873107910156, 345.8462829589844, 356.1052551269531]}, "gradients/distilbert.embeddings.position_embeddings.weight": {"_type": "histogram", "values": [1.0, 1.0, 0.0, 2.0, 4.0, 5.0, 8.0, 13.0, 12.0, 11.0, 17.0, 24.0, 24.0, 19.0, 47.0, 59.0, 69.0, 105.0, 128.0, 159.0, 238.0, 286.0, 424.0, 524.0, 633.0, 844.0, 1159.0, 2251.0, 374630.0, 5219.0, 1776.0, 1090.0, 799.0, 588.0, 484.0, 392.0, 265.0, 226.0, 168.0, 119.0, 97.0, 69.0, 46.0, 51.0, 30.0, 21.0, 21.0, 15.0, 13.0, 10.0, 2.0, 4.0, 4.0, 3.0, 1.0, 1.0, 1.0, 1.0, 0.0, 0.0, 1.0, 0.0, 1.0, 1.0], "bins": [-989.2109375, -954.9483642578125, -920.685791015625, -886.4231567382812, -852.1605834960938, -817.8980102539062, -783.6353759765625, -749.372802734375, -715.1102294921875, -680.84765625, -646.5850830078125, -612.3224487304688, -578.0598754882812, -543.7973022460938, -509.5346984863281, -475.2720947265625, -441.009521484375, -406.7469482421875, -372.4843444824219, -338.22174072265625, -303.95916748046875, -269.69659423828125, -235.43399047851562, -201.17140197753906, -166.9088134765625, -132.64622497558594, -98.38363647460938, -64.12104797363281, -29.85845947265625, 4.4041290283203125, 38.666717529296875, 72.92930603027344, 107.19189453125, 141.45448303222656, 175.71707153320312, 209.9796600341797, 244.24224853515625, 278.50482177734375, 312.7674255371094, 347.030029296875, 381.2926025390625, 415.55517578125, 449.8177795410156, 484.08038330078125, 518.3429565429688, 552.6055297851562, 586.8681640625, 621.1307373046875, 655.393310546875, 689.6558837890625, 723.91845703125, 758.1810913085938, 792.4436645507812, 826.7062377929688, 860.9688720703125, 895.2314453125, 929.4940185546875, 963.756591796875, 998.0191650390625, 1032.28173828125, 1066.54443359375, 1100.8070068359375, 1135.069580078125, 1169.3321533203125, 1203.5947265625]}, "gradients/distilbert.embeddings.word_embeddings.weight": {"_type": "histogram", "values": [1.0, 0.0, 1.0, 0.0, 2.0, 2.0, 3.0, 2.0, 6.0, 4.0, 9.0, 6.0, 13.0, 10.0, 17.0, 17.0, 18.0, 40.0, 55.0, 57.0, 104.0, 138.0, 200.0, 234.0, 413.0, 483.0, 709.0, 1089.0, 1628.0, 2588.0, 4917.0, 15276.0, 22214718.0, 13762.0, 4784.0, 2516.0, 1523.0, 1031.0, 755.0, 471.0, 369.0, 293.0, 187.0, 110.0, 97.0, 72.0, 44.0, 25.0, 29.0, 20.0, 30.0, 13.0, 4.0, 6.0, 6.0, 9.0, 3.0, 2.0, 2.0, 4.0, 1.0, 1.0, 0.0, 1.0], "bins": [-948.5947265625, -919.3798217773438, -890.1649169921875, -860.9500122070312, -831.735107421875, -802.5202026367188, -773.3052978515625, -744.0903930664062, -714.87548828125, -685.6605834960938, -656.4456787109375, -627.2307739257812, -598.015869140625, -568.8009643554688, -539.5860595703125, -510.37115478515625, -481.1562194824219, -451.9413146972656, -422.7264099121094, -393.5115051269531, -364.2966003417969, -335.0816650390625, -305.86676025390625, -276.65185546875, -247.4369659423828, -218.22206115722656, -189.0071563720703, -159.792236328125, -130.57733154296875, -101.3624267578125, -72.14752197265625, -42.9326171875, -13.71771240234375, 15.497194290161133, 44.712100982666016, 73.92700958251953, 103.14191436767578, 132.35682678222656, 161.5717315673828, 190.78663635253906, 220.0015411376953, 249.21644592285156, 278.4313659667969, 307.6462707519531, 336.8611755371094, 366.0760803222656, 395.2909851074219, 424.5058898925781, 453.7207946777344, 482.9356994628906, 512.150634765625, 541.3655395507812, 570.5804443359375, 599.7953491210938, 629.01025390625, 658.2251586914062, 687.4400634765625, 716.6549682617188, 745.869873046875, 775.0847778320312, 804.2996826171875, 833.5145874023438, 862.7294921875, 891.9443969726562, 921.1593017578125]}, "train/loss": 0.0994, "train/learning_rate": 3.1065329357549473e-06, "train/epoch": 7.0, "train/global_step": 3689, "_step": 14, "eval/loss": 0.5632021427154541, "eval/accuracy": 0.8876146788990825, "eval/runtime": 0.4066, "eval/samples_per_second": 2144.575, "eval/steps_per_second": 17.216, "train/train_runtime": 319.8844, "train/train_samples_per_second": 1473.792, "train/train_steps_per_second": 11.532, "train/total_flos": 3186342286167516.0, "train/train_loss": 0.20677563012470299}